{"learner":{"attributes":{"best_iteration":"94","best_score":"0.2828410157617379","scikit_learn":"{\"_estimator_type\": \"regressor\"}"},"feature_names":["superficie_media","dist_min_amenity_m","dist_min_public_transport_m","dist_min_leisure_m","dist_min_shop_m","dist_to_sol_m","count_amenity_500m","count_amenity_1km","count_amenity_2km","count_amenity_in_poly","dist_min_school_m","count_school_1km","dist_min_hospital_m","count_hospital_1km","dist_min_university_m","count_university_1km","dist_min_metro_m","count_metro_1km","dist_min_park_m","count_park_1km","dist_min_supermarket_m","count_supermarket_1km","precio_vecinos_m2","barrio_encoded","ano","mes","trimestre"],"feature_types":["float","float","float","float","float","float","float","float","float","float","float","float","float","float","float","float","float","float","float","float","float","float","float","float","int","int","int"],"gradient_booster":{"model":{"cats":{"enc":[],"feature_segments":[],"sorted_idx":[]},"gbtree_model_param":{"num_parallel_tree":"1","num_trees":"145"},"iteration_indptr":[0,1,2,3,4,5,6,7,8,9,10,11,12,13,14,15,16,17,18,19,20,21,22,23,24,25,26,27,28,29,30,31,32,33,34,35,36,37,38,39,40,41,42,43,44,45,46,47,48,49,50,51,52,53,54,55,56,57,58,59,60,61,62,63,64,65,66,67,68,69,70,71,72,73,74,75,76,77,78,79,80,81,82,83,84,85,86,87,88,89,90,91,92,93,94,95,96,97,98,99,100,101,102,103,104,105,106,107,108,109,110,111,112,113,114,115,116,117,118,119,120,121,122,123,124,125,126,127,128,129,130,131,132,133,134,135,136,137,138,139,140,141,142,143,144,145],"tree_info":[0,0,0,0,0,0,0,0,0,0,0,0,0,0,0,0,0,0,0,0,0,0,0,0,0,0,0,0,0,0,0,0,0,0,0,0,0,0,0,0,0,0,0,0,0,0,0,0,0,0,0,0,0,0,0,0,0,0,0,0,0,0,0,0,0,0,0,0,0,0,0,0,0,0,0,0,0,0,0,0,0,0,0,0,0,0,0,0,0,0,0,0,0,0,0,0,0,0,0,0,0,0,0,0,0,0,0,0,0,0,0,0,0,0,0,0,0,0,0,0,0,0,0,0,0,0,0,0,0,0,0,0,0,0,0,0,0,0,0,0,0,0,0,0,0],"trees":[{"base_weights":[-3.1580948E-3,-6.484367E-1,8.9324105E-1,-9.0131485E-1,-2.5353926E-1,4.9374896E-1,1.8506496E0,-9.9405265E-1,-5.847521E-1,-3.680759E-1,1.2795967E-1,2.829658E-1,7.910026E-1,1.5337452E0,2.4184232E0,-1.0845045E0,-8.385096E-1,-6.894286E-1,-4.7427914E-1,-5.1167667E-1,-2.1980411E-1,-1.5017673E-1,2.8405452E-1,2.3822515E-1,6.2798685E-1,6.328724E-1,1.0009475E0,1.4350506E0,1.1695104E-1,2.049995E0,1.4349769E-1,-7.025047E-2,-1.0621369E0,-8.5647184E-1,-4.8429322E-1,-7.5259656E-1,-3.1518973E-2,-2.8871162E-2,-3.838948E-1,-3.6942557E-1,-5.539828E-1,-2.8027913E-1,-4.8741512E-2,-4.6779875E-2,-4.3936905E-1,1.7739238E-1,3.525917E-1,1.5253328E-1,3.3047876E-1,5.367358E-1,4.426518E-2,4.94444E-1,7.6718044E-1,6.3649505E-1,1.0567029E0,1.0736488E0,1.5226611E0,1.0586615E-1,6.230957E-2,-5.53858E-2,-4.8639342E-2,-5.1731825E-2,-4.165172E-2,-2.7353361E-2,-1.6479779E-2,-2.8662592E-2,-4.012577E-2,-2.3628926E-2,-1.3325295E-2,-1.09295985E-2,-2.5309905E-2,-3.2312576E-2,-2.3836581E-2,-9.037688E-3,-1.6632102E-2,4.7948267E-3,-8.435016E-3,-8.677136E-3,1.6211258E-3,-2.899234E-2,-1.4152497E-2,1.4577267E-2,-3.088752E-4,2.3103926E-2,1.475323E-2,3.3758637E-3,1.3991392E-2,1.9266514E-2,1.0740575E-2,1.7814659E-2,2.8072296E-2,3.0795652E-2,1.687414E-2,4.1845355E-2,2.2670135E-2,2.2039155E-2,3.494951E-2,4.9504727E-2,6.777344E-2,4.2336013E-2,6.2200155E-2,6.597296E-2,8.211776E-2],"categories":[],"categories_nodes":[],"categories_segments":[],"categories_sizes":[],"default_left":[0,0,0,0,0,0,0,0,0,0,0,0,0,0,0,0,0,0,0,0,1,0,0,0,0,0,0,0,0,1,0,0,0,0,0,0,0,0,1,0,0,0,0,0,0,1,1,0,0,0,0,0,0,0,0,0,0,0,0,0,0,0,0,0,0,0,0,0,0,0,0,0,0,0,0,0,0,0,0,0,0,0,0,0,0,0,0,0,0,0,0,0,0,0,0,0,0,0,0,0,0,0,0],"id":0,"left_children":[1,3,5,7,9,11,13,15,17,19,21,23,25,27,29,31,33,35,37,39,41,43,45,47,49,51,53,55,-1,57,-1,-1,59,61,63,65,-1,-1,67,69,71,73,75,77,79,81,83,85,87,89,-1,91,93,95,97,99,101,-1,-1,-1,-1,-1,-1,-1,-1,-1,-1,-1,-1,-1,-1,-1,-1,-1,-1,-1,-1,-1,-1,-1,-1,-1,-1,-1,-1,-1,-1,-1,-1,-1,-1,-1,-1,-1,-1,-1,-1,-1,-1,-1,-1,-1,-1],"loss_changes":[1.9637611E3,1.9689691E2,5.425863E2,3.4735657E1,3.378011E1,6.268286E1,7.1501465E1,1.2160828E1,2.8531036E0,1.2534943E1,7.814062E0,8.942478E0,1.3177155E1,1.8181458E1,1.8737366E1,2.694397E0,1.7866364E0,4.4044495E-2,1.0555267E0,1.6067886E0,3.027771E0,1.9230487E0,7.781391E-1,4.0841084E0,1.0980148E0,4.0827713E0,2.9240875E0,6.0908813E0,0E0,1.9614563E0,0E0,0E0,1.1622925E0,5.0775146E-1,4.1980743E-3,9.502411E-2,0E0,0E0,6.6525173E-1,1.3747025E0,1.3313217E0,1.0707569E0,1.3695251E0,4.975828E-1,2.0918345E-1,9.86688E-1,2.982502E-1,2.935533E0,1.5097027E0,3.1817436E-2,0E0,2.0991154E0,2.2459793E0,9.904861E-3,1.6828003E0,9.182472E-1,2.551422E0,0E0,0E0,0E0,0E0,0E0,0E0,0E0,0E0,0E0,0E0,0E0,0E0,0E0,0E0,0E0,0E0,0E0,0E0,0E0,0E0,0E0,0E0,0E0,0E0,0E0,0E0,0E0,0E0,0E0,0E0,0E0,0E0,0E0,0E0,0E0,0E0,0E0,0E0,0E0,0E0,0E0,0E0,0E0,0E0,0E0,0E0],"parents":[2147483647,0,0,1,1,2,2,3,3,4,4,5,5,6,6,7,7,8,8,9,9,10,10,11,11,12,12,13,13,14,14,15,15,16,16,17,17,18,18,19,19,20,20,21,21,22,22,23,23,24,24,25,25,26,26,27,27,29,29,32,32,33,33,34,34,35,35,38,38,39,39,40,40,41,41,42,42,43,43,44,44,45,45,46,46,47,47,48,48,49,49,51,51,52,52,53,53,54,54,55,55,56,56],"right_children":[2,4,6,8,10,12,14,16,18,20,22,24,26,28,30,32,34,36,38,40,42,44,46,48,50,52,54,56,-1,58,-1,-1,60,62,64,66,-1,-1,68,70,72,74,76,78,80,82,84,86,88,90,-1,92,94,96,98,100,102,-1,-1,-1,-1,-1,-1,-1,-1,-1,-1,-1,-1,-1,-1,-1,-1,-1,-1,-1,-1,-1,-1,-1,-1,-1,-1,-1,-1,-1,-1,-1,-1,-1,-1,-1,-1,-1,-1,-1,-1,-1,-1,-1,-1,-1,-1],"split_conditions":[1.372198E-1,-5.341799E-1,1.1773288E0,-6.802801E-1,2.3039508E-1,4.229587E-1,1.9607943E0,-9.549088E-1,-5.405442E-1,-3.7019563E-1,-2.686847E-1,9.082795E-1,9.082795E-1,2.8096235E0,2.1791155E0,-1.2645624E0,1.8226257E-1,-9.0857774E-1,-8.975489E-1,1.4835286E-1,4.823307E-2,1.2922324E-1,4.4534785E-1,4.042082E-1,3.740182E-2,7.853191E-1,4.2994935E-3,9.0230983E-1,1.1695104E-1,2.5044048E-1,1.4349769E-1,-7.025047E-2,-9.719918E-1,-1.1274177E0,-6.4071906E-1,1.0811287E-2,-3.1518973E-2,-2.8871162E-2,6.267806E-2,1.06843576E-1,-3.2188502E-1,2.0474257E-2,2.240765E-1,4.3426868E-1,4.4534785E-1,3.480439E-1,4.672534E-2,-2.0900767E-2,5.559441E-1,8.507882E-2,4.426518E-2,2.6780626E-1,8.741259E-1,7.3391E-1,7.851446E-2,1.4649957E0,1.4649957E0,1.0586615E-1,6.230957E-2,-5.53858E-2,-4.8639342E-2,-5.1731825E-2,-4.165172E-2,-2.7353361E-2,-1.6479779E-2,-2.8662592E-2,-4.012577E-2,-2.3628926E-2,-1.3325295E-2,-1.09295985E-2,-2.5309905E-2,-3.2312576E-2,-2.3836581E-2,-9.037688E-3,-1.6632102E-2,4.7948267E-3,-8.435016E-3,-8.677136E-3,1.6211258E-3,-2.899234E-2,-1.4152497E-2,1.4577267E-2,-3.088752E-4,2.3103926E-2,1.475323E-2,3.3758637E-3,1.3991392E-2,1.9266514E-2,1.0740575E-2,1.7814659E-2,2.8072296E-2,3.0795652E-2,1.687414E-2,4.1845355E-2,2.2670135E-2,2.2039155E-2,3.494951E-2,4.9504727E-2,6.777344E-2,4.2336013E-2,6.2200155E-2,6.597296E-2,8.211776E-2],"split_indices":[23,22,22,23,22,22,22,22,23,23,23,23,23,23,23,23,7,22,22,14,3,1,22,23,1,22,1,23,0,5,0,0,23,23,22,2,0,0,9,7,22,2,14,22,22,8,18,22,19,22,0,9,19,22,3,22,22,0,0,0,0,0,0,0,0,0,0,0,0,0,0,0,0,0,0,0,0,0,0,0,0,0,0,0,0,0,0,0,0,0,0,0,0,0,0,0,0,0,0,0,0,0,0],"split_type":[0,0,0,0,0,0,0,0,0,0,0,0,0,0,0,0,0,0,0,0,0,0,0,0,0,0,0,0,0,0,0,0,0,0,0,0,0,0,0,0,0,0,0,0,0,0,0,0,0,0,0,0,0,0,0,0,0,0,0,0,0,0,0,0,0,0,0,0,0,0,0,0,0,0,0,0,0,0,0,0,0,0,0,0,0,0,0,0,0,0,0,0,0,0,0,0,0,0,0,0,0,0,0],"sum_hessian":[3.393E3,1.973E3,1.42E3,1.202E3,7.71E2,1.003E3,4.17E2,9.28E2,2.74E2,5.93E2,1.78E2,5.88E2,4.15E2,2.7E2,1.47E2,5.83E2,3.45E2,1.38E2,1.36E2,3E2,2.93E2,6.4E1,1.14E2,5.22E2,6.6E1,2.39E2,1.76E2,2.43E2,2.7E1,8.4E1,6.3E1,3.4E1,5.49E2,3.27E2,1.8E1,6.1E1,7.7E1,6.1E1,7.5E1,7.1E1,2.29E2,2.16E2,7.7E1,4.8E1,1.6E1,4.6E1,6.8E1,2.72E2,2.5E2,5.1E1,1.5E1,1.2E2,1.19E2,2.5E1,1.51E2,5E1,1.93E2,7.6E1,8E0,3.56E2,1.93E2,3.3E1,2.94E2,1.1E1,7E0,1.6E1,4.5E1,4.1E1,3.4E1,3.5E1,3.6E1,1.01E2,1.28E2,7.6E1,1.4E2,3.5E1,4.2E1,1.8E1,3E1,7E0,9E0,2.8E1,1.8E1,2.1E1,4.7E1,1.64E2,1.08E2,1.68E2,8.2E1,8E0,4.3E1,6.6E1,5.4E1,9.6E1,2.3E1,8E0,1.7E1,1.27E2,2.4E1,2.4E1,2.6E1,7.6E1,1.17E2],"tree_param":{"num_deleted":"0","num_feature":"27","num_nodes":"103","size_leaf_vector":"1"}},{"base_weights":[-3.0343938E-3,-6.1238104E-1,8.5160774E-1,-8.628337E-1,-2.5807288E-1,4.8125008E-1,1.77999E0,-9.479964E-1,-5.6024706E-1,-3.6146054E-1,1.1743117E-1,2.5668788E-1,7.715768E-1,1.4718012E0,2.3102949E0,-1.014317E0,-7.4952626E-1,-6.5567213E-1,-4.6345904E-1,-4.8838595E-1,-2.086977E-1,-1.4508756E-1,2.4880673E-1,1.9785784E-1,6.2056804E-1,5.9727156E-1,9.666747E-1,1.3813668E0,1.1110728E-1,1.9412118E0,1.3641281E-1,-1.1040084E0,-9.079703E-1,-4.6087965E-2,-6.668199E-1,-3.5719875E-2,-2.8674603E-2,-4.9553874E-1,-1.823402E-1,-6.166597E-1,-3.9293054E-1,-2.6008826E-1,1.0583823E-1,-4.8918016E-2,-3.854624E-1,-4.5548398E-2,3.1603727E-1,1.409865E-1,6.21962E-1,1.587836E-2,6.6491276E-1,4.106275E-1,7.397997E-1,8.9463854E-1,6.797327E-2,5.2624203E-2,1.457045E0,5.9075978E-2,9.985541E-2,-6.0484946E-2,-5.2249808E-2,-4.820649E-2,-4.216811E-2,-3.4340374E-2,-2.297323E-2,-2.6621027E-2,-1.9046674E-2,-1.1225907E-2,3.0605458E-3,-3.2392185E-2,-2.4417838E-2,-2.4763245E-2,-9.048927E-3,-1.4986142E-2,-1.7460546E-3,7.114984E-3,6.777513E-4,-8.12088E-3,3.0886838E-3,-2.2805588E-2,-8.995998E-3,2.0294075E-3,-4.7096885E-3,1.7913187E-2,1.09534515E-2,3.4304678E-3,1.1849674E-2,2.6263962E-2,4.2146217E-2,1.5267387E-2,3.4130726E-2,2.5653316E-2,1.6347732E-2,3.8708378E-2,2.3088597E-2,3.576528E-2,4.999768E-2,6.335607E-2,7.7787705E-2],"categories":[],"categories_nodes":[],"categories_segments":[],"categories_sizes":[],"default_left":[0,0,0,0,0,0,0,0,0,0,0,0,0,0,0,0,0,0,0,0,0,0,0,0,0,0,0,0,0,0,0,0,0,0,0,0,0,0,0,0,0,0,0,0,0,1,1,0,0,0,0,0,0,0,0,0,0,0,0,0,0,0,0,0,0,0,0,0,0,0,0,0,0,0,0,0,0,0,0,0,0,0,0,0,0,0,0,0,0,0,0,0,0,0,0,0,0,0,0],"id":1,"left_children":[1,3,5,7,9,11,13,15,17,19,21,23,25,27,29,31,33,35,37,39,41,43,45,47,49,51,53,55,-1,57,-1,59,61,-1,63,-1,-1,65,67,69,71,73,75,77,79,81,83,85,87,-1,89,91,93,95,-1,-1,97,-1,-1,-1,-1,-1,-1,-1,-1,-1,-1,-1,-1,-1,-1,-1,-1,-1,-1,-1,-1,-1,-1,-1,-1,-1,-1,-1,-1,-1,-1,-1,-1,-1,-1,-1,-1,-1,-1,-1,-1,-1,-1],"loss_changes":[1.7654224E3,1.7538861E2,4.8429242E2,2.9335266E1,3.191571E1,6.565033E1,6.230017E1,1.1125671E1,2.0697784E0,1.2384911E1,6.1750607E0,1.2100666E1,1.4385529E1,1.4369629E1,1.7226196E1,5.4264526E0,2.6616516E0,2.0320892E-1,1.0910282E0,4.055481E0,4.7797966E0,1.3681484E0,2.3693628E0,1.1803158E1,8.5032845E-1,5.947693E0,4.612564E0,4.2407837E0,0E0,1.079956E0,0E0,9.8742676E-1,3.2617188E-1,0E0,3.4342194E-1,0E0,0E0,2.9172134E-1,1.6783014E-1,2.7576828E-1,4.335121E0,2.247406E0,1.3939184E-1,5.6282544E-1,1.6480112E-1,1.0019645E-1,3.1869507E-1,3.0133772E0,7.96299E-1,0E0,2.243805E-1,7.2367096E-1,9.0380096E-1,2.6276245E0,0E0,0E0,1.515686E0,0E0,0E0,0E0,0E0,0E0,0E0,0E0,0E0,0E0,0E0,0E0,0E0,0E0,0E0,0E0,0E0,0E0,0E0,0E0,0E0,0E0,0E0,0E0,0E0,0E0,0E0,0E0,0E0,0E0,0E0,0E0,0E0,0E0,0E0,0E0,0E0,0E0,0E0,0E0,0E0,0E0,0E0],"parents":[2147483647,0,0,1,1,2,2,3,3,4,4,5,5,6,6,7,7,8,8,9,9,10,10,11,11,12,12,13,13,14,14,15,15,16,16,17,17,18,18,19,19,20,20,21,21,22,22,23,23,24,24,25,25,26,26,27,27,29,29,31,31,32,32,34,34,37,37,38,38,39,39,40,40,41,41,42,42,43,43,44,44,45,45,46,46,47,47,48,48,50,50,51,51,52,52,53,53,56,56],"right_children":[2,4,6,8,10,12,14,16,18,20,22,24,26,28,30,32,34,36,38,40,42,44,46,48,50,52,54,56,-1,58,-1,60,62,-1,64,-1,-1,66,68,70,72,74,76,78,80,82,84,86,88,-1,90,92,94,96,-1,-1,98,-1,-1,-1,-1,-1,-1,-1,-1,-1,-1,-1,-1,-1,-1,-1,-1,-1,-1,-1,-1,-1,-1,-1,-1,-1,-1,-1,-1,-1,-1,-1,-1,-1,-1,-1,-1,-1,-1,-1,-1,-1,-1],"split_conditions":[1.372198E-1,-5.6727755E-1,1.2278286E0,-6.802801E-1,2.3039508E-1,4.1507596E-1,1.9607943E0,2.025E3,-5.405442E-1,-3.7019563E-1,-2.686847E-1,2.025E3,9.0230983E-1,2.8096235E0,2.1791155E0,-9.719918E-1,-1.0889657E0,2.024E3,2.025E3,2.025E3,2.025E3,-8.26199E-2,2.025E3,9.082795E-1,1.7962301E-1,2.025E3,1.245172E0,9.0230983E-1,1.1110728E-1,-3.5740778E-1,1.3641281E-1,-1.162316E0,2.024E3,-4.6087965E-2,-8.510811E-1,-3.5719875E-2,-2.8674603E-2,-7.0554346E-1,-2.752511E-1,-9.451014E-2,-6.387171E-1,8.52772E-2,1.4814815E-1,4.5600736E-1,5.904683E-1,3.4399593E-1,4.0555555E-1,2.024E3,1.4430473E0,1.587836E-2,6.6538644E-4,4.351852E-1,4.0708455E-1,8.005529E-1,6.797327E-2,5.2624203E-2,1.4649957E0,5.9075978E-2,9.985541E-2,-6.0484946E-2,-5.2249808E-2,-4.820649E-2,-4.216811E-2,-3.4340374E-2,-2.297323E-2,-2.6621027E-2,-1.9046674E-2,-1.1225907E-2,3.0605458E-3,-3.2392185E-2,-2.4417838E-2,-2.4763245E-2,-9.048927E-3,-1.4986142E-2,-1.7460546E-3,7.114984E-3,6.777513E-4,-8.12088E-3,3.0886838E-3,-2.2805588E-2,-8.995998E-3,2.0294075E-3,-4.7096885E-3,1.7913187E-2,1.09534515E-2,3.4304678E-3,1.1849674E-2,2.6263962E-2,4.2146217E-2,1.5267387E-2,3.4130726E-2,2.5653316E-2,1.6347732E-2,3.8708378E-2,2.3088597E-2,3.576528E-2,4.999768E-2,6.335607E-2,7.7787705E-2],"split_indices":[23,22,22,23,22,22,22,24,23,23,23,24,23,23,23,23,23,24,24,24,24,0,24,23,23,24,0,23,0,0,0,23,24,0,23,0,0,22,0,22,23,23,9,22,22,5,21,24,0,0,18,17,16,22,0,0,22,0,0,0,0,0,0,0,0,0,0,0,0,0,0,0,0,0,0,0,0,0,0,0,0,0,0,0,0,0,0,0,0,0,0,0,0,0,0,0,0,0,0],"split_type":[0,0,0,0,0,0,0,0,0,0,0,0,0,0,0,0,0,0,0,0,0,0,0,0,0,0,0,0,0,0,0,0,0,0,0,0,0,0,0,0,0,0,0,0,0,0,0,0,0,0,0,0,0,0,0,0,0,0,0,0,0,0,0,0,0,0,0,0,0,0,0,0,0,0,0,0,0,0,0,0,0,0,0,0,0,0,0,0,0,0,0,0,0,0,0,0,0,0,0],"sum_hessian":[3.388E3,1.978E3,1.41E3,1.158E3,8.2E2,1.009E3,4.01E2,9.02E2,2.56E2,6.43E2,1.77E2,5.7E2,4.39E2,2.56E2,1.45E2,6.73E2,2.29E2,1.26E2,1.3E2,3.5E2,2.93E2,5.9E1,1.18E2,4.92E2,7.8E1,2.34E2,2.05E2,2.31E2,2.5E1,8E1,6.5E1,3.6E2,3.13E2,7.1E1,1.58E2,6.9E1,5.7E1,1.16E2,1.4E1,1.47E2,2.03E2,2.52E2,4.1E1,4.3E1,1.6E1,2.2E1,9.6E1,4.35E2,5.7E1,1.1E1,6.7E1,1.03E2,1.31E2,1.76E2,2.9E1,4.6E1,1.85E2,7E0,7.3E1,1.22E2,2.38E2,1.6E2,1.53E2,1.42E2,1.6E1,8.5E1,3.1E1,1.2E1,2E0,1.15E2,3.2E1,1.36E2,6.7E1,2.14E2,3.8E1,2.9E1,1.2E1,2.1E1,2.2E1,1.1E1,5E0,8E0,1.4E1,6.5E1,3.1E1,2.49E2,1.86E2,4.2E1,1.5E1,4E0,6.3E1,4.4E1,5.9E1,1.15E2,1.6E1,6.8E1,1.08E2,6.8E1,1.17E2],"tree_param":{"num_deleted":"0","num_feature":"27","num_nodes":"99","size_leaf_vector":"1"}},{"base_weights":[-2.1869922E-3,-5.8579826E-1,8.29595E-1,-8.3070195E-1,-2.6234707E-1,4.5440048E-1,1.6703662E0,-9.0619147E-1,-5.3952676E-1,-3.5146284E-1,1.2819119E-1,2.5204602E-1,7.289742E-1,1.3735921E0,2.2138758E0,-9.615526E-1,-7.3309666E-1,-5.7200706E-1,-2.2607705E-1,-4.5739254E-1,-1.8339364E-1,-1.234843E-1,2.5871116E-1,1.9327562E-1,5.809607E-1,5.719625E-1,9.279343E-1,1.2795208E0,1.0637063E-1,1.8662392E0,1.3192903E-1,-1.0420994E0,-8.6722064E-1,-8.983914E-1,-6.4040226E-1,-6.354721E-1,-4.9266753E-1,-2.8186747E-1,4.2300142E-2,-5.6251013E-1,-3.595215E-1,-2.2510844E-1,1.18911505E-1,-2.4348808E-2,-3.928314E-1,-9.69211E-3,3.0600944E-1,1.16699174E-1,4.9057668E-1,4.3706593E-1,7.394759E-1,4.1527185E-1,6.9628215E-1,9.913951E-1,6.132796E-1,9.428389E-1,1.3631905E0,7.755401E-2,1.0107016E-1,-6.1031293E-2,-5.038752E-2,-4.5926757E-2,-3.9930042E-2,-4.1645173E-2,-5.4219168E-2,-3.486668E-2,-2.677182E-2,-3.4217335E-2,-2.7863536E-2,-2.6161185E-2,-1.8381093E-2,-1.7537136E-2,-6.7355917E-3,-1.6953573E-3,3.4914375E-3,-3.1533536E-2,-2.3062326E-2,-2.3329219E-2,-8.039187E-3,-1.2900421E-2,-2.3622105E-3,2.608019E-3,1.4926786E-2,-5.2161803E-3,3.4419824E-3,-2.4540724E-2,-1.2287221E-2,-1.3851217E-3,6.961827E-3,7.97754E-3,1.7953439E-2,1.5966687E-3,1.10801095E-2,2.1331755E-2,3.9580625E-2,1.4963745E-2,2.4615157E-2,1.9136252E-2,3.8465623E-2,1.1571932E-2,2.3606235E-2,3.0662252E-2,4.360911E-2,4.0421724E-2,5.4492313E-2,2.0355484E-2,3.314848E-2,2.9163841E-2,4.9634576E-2,6.1838027E-2,7.5190835E-2],"categories":[],"categories_nodes":[],"categories_segments":[],"categories_sizes":[],"default_left":[0,0,0,0,0,0,0,0,0,0,0,0,0,0,0,0,0,0,0,0,0,0,0,0,0,0,0,0,0,0,0,0,0,1,0,0,0,0,0,0,0,0,0,0,0,0,0,0,0,0,0,0,0,0,0,0,1,0,0,0,0,0,0,0,0,0,0,0,0,0,0,0,0,0,0,0,0,0,0,0,0,0,0,0,0,0,0,0,0,0,0,0,0,0,0,0,0,0,0,0,0,0,0,0,0,0,0,0,0,0,0],"id":2,"left_children":[1,3,5,7,9,11,13,15,17,19,21,23,25,27,29,31,33,35,37,39,41,43,45,47,49,51,53,55,-1,57,-1,59,61,63,65,67,69,71,73,75,77,79,81,83,85,87,89,91,93,95,97,99,101,103,105,107,109,-1,-1,-1,-1,-1,-1,-1,-1,-1,-1,-1,-1,-1,-1,-1,-1,-1,-1,-1,-1,-1,-1,-1,-1,-1,-1,-1,-1,-1,-1,-1,-1,-1,-1,-1,-1,-1,-1,-1,-1,-1,-1,-1,-1,-1,-1,-1,-1,-1,-1,-1,-1,-1,-1],"loss_changes":[1.6611671E3,1.5908221E2,4.443448E2,2.4656982E1,3.0254154E1,5.4099594E1,6.712427E1,7.9865723E0,2.293747E0,1.2503212E1,5.3534327E0,1.0790089E1,1.2402222E1,1.7417236E1,1.7517456E1,4.293396E0,2.856781E0,7.6950836E-1,3.7127233E-1,4.252449E0,3.4946814E0,1.4857389E0,1.3613329E0,1.0870552E1,1.6156044E0,4.269104E0,3.006256E0,5.8981323E0,0E0,1.1190491E0,0E0,1.0020752E0,3.967743E-1,4.6875E-2,5.050659E-1,6.199646E-2,1.8974495E-1,1.5545833E-1,1.2857097E-2,1.1378555E0,4.754959E0,1.4039297E0,3.9209226E-1,3.2019615E-1,9.556556E-2,4.9455497E-2,6.498718E-1,3.3986325E0,1.548645E0,2.10392E-1,1.206913E-1,9.9858475E-1,1.3493462E0,1.8028259E0,6.8169594E-2,3.8894653E-1,1.7315674E0,0E0,0E0,0E0,0E0,0E0,0E0,0E0,0E0,0E0,0E0,0E0,0E0,0E0,0E0,0E0,0E0,0E0,0E0,0E0,0E0,0E0,0E0,0E0,0E0,0E0,0E0,0E0,0E0,0E0,0E0,0E0,0E0,0E0,0E0,0E0,0E0,0E0,0E0,0E0,0E0,0E0,0E0,0E0,0E0,0E0,0E0,0E0,0E0,0E0,0E0,0E0,0E0,0E0,0E0],"parents":[2147483647,0,0,1,1,2,2,3,3,4,4,5,5,6,6,7,7,8,8,9,9,10,10,11,11,12,12,13,13,14,14,15,15,16,16,17,17,18,18,19,19,20,20,21,21,22,22,23,23,24,24,25,25,26,26,27,27,29,29,31,31,32,32,33,33,34,34,35,35,36,36,37,37,38,38,39,39,40,40,41,41,42,42,43,43,44,44,45,45,46,46,47,47,48,48,49,49,50,50,51,51,52,52,53,53,54,54,55,55,56,56],"right_children":[2,4,6,8,10,12,14,16,18,20,22,24,26,28,30,32,34,36,38,40,42,44,46,48,50,52,54,56,-1,58,-1,60,62,64,66,68,70,72,74,76,78,80,82,84,86,88,90,92,94,96,98,100,102,104,106,108,110,-1,-1,-1,-1,-1,-1,-1,-1,-1,-1,-1,-1,-1,-1,-1,-1,-1,-1,-1,-1,-1,-1,-1,-1,-1,-1,-1,-1,-1,-1,-1,-1,-1,-1,-1,-1,-1,-1,-1,-1,-1,-1,-1,-1,-1,-1,-1,-1,-1,-1,-1,-1,-1,-1],"split_conditions":[1.372198E-1,-6.0096276E-1,1.1773288E0,-6.802801E-1,2.697597E-1,4.229587E-1,1.9607943E0,2.025E3,2.025E3,-2.489347E-1,-2.686847E-1,2.025E3,9.082795E-1,2.8096235E0,2.1791155E0,-9.719918E-1,-1.0889657E0,-5.405442E-1,-2.752511E-1,2.025E3,2.025E3,-8.26199E-2,2.025E3,6.602594E-1,6E0,2.025E3,9.537037E-1,9.0230983E-1,1.0637063E-1,1.6464702E0,1.3192903E-1,-1.2226316E0,2.024E3,1.8748578E-1,7E0,2.024E3,-7.419704E-1,5E0,2E0,-4.9589345E-1,-6.387171E-1,8.52772E-2,6E0,4.7363332E-1,4.4534785E-1,-2.0358251E-1,6E0,2.024E3,5.7122505E-1,2.1096015E-1,6.6538644E-4,2.024E3,4.744555E-1,7.853191E-1,7.3391E-1,2.025E3,4.1428572E-1,7.755401E-2,1.0107016E-1,-6.1031293E-2,-5.038752E-2,-4.5926757E-2,-3.9930042E-2,-4.1645173E-2,-5.4219168E-2,-3.486668E-2,-2.677182E-2,-3.4217335E-2,-2.7863536E-2,-2.6161185E-2,-1.8381093E-2,-1.7537136E-2,-6.7355917E-3,-1.6953573E-3,3.4914375E-3,-3.1533536E-2,-2.3062326E-2,-2.3329219E-2,-8.039187E-3,-1.2900421E-2,-2.3622105E-3,2.608019E-3,1.4926786E-2,-5.2161803E-3,3.4419824E-3,-2.4540724E-2,-1.2287221E-2,-1.3851217E-3,6.961827E-3,7.97754E-3,1.7953439E-2,1.5966687E-3,1.10801095E-2,2.1331755E-2,3.9580625E-2,1.4963745E-2,2.4615157E-2,1.9136252E-2,3.8465623E-2,1.1571932E-2,2.3606235E-2,3.0662252E-2,4.360911E-2,4.0421724E-2,5.4492313E-2,2.0355484E-2,3.314848E-2,2.9163841E-2,4.9634576E-2,6.1838027E-2,7.5190835E-2],"split_indices":[23,22,22,23,22,22,22,24,24,23,23,24,23,23,23,23,23,23,0,24,24,0,24,23,25,24,17,23,0,23,0,23,24,4,25,24,22,25,25,23,23,23,25,22,22,0,25,24,9,23,18,24,23,22,22,24,13,0,0,0,0,0,0,0,0,0,0,0,0,0,0,0,0,0,0,0,0,0,0,0,0,0,0,0,0,0,0,0,0,0,0,0,0,0,0,0,0,0,0,0,0,0,0,0,0,0,0,0,0,0,0],"split_type":[0,0,0,0,0,0,0,0,0,0,0,0,0,0,0,0,0,0,0,0,0,0,0,0,0,0,0,0,0,0,0,0,0,0,0,0,0,0,0,0,0,0,0,0,0,0,0,0,0,0,0,0,0,0,0,0,0,0,0,0,0,0,0,0,0,0,0,0,0,0,0,0,0,0,0,0,0,0,0,0,0,0,0,0,0,0,0,0,0,0,0,0,0,0,0,0,0,0,0,0,0,0,0,0,0,0,0,0,0,0,0],"sum_hessian":[3.42E3,2.01E3,1.41E3,1.143E3,8.67E2,9.76E2,4.34E2,9.06E2,2.37E2,7.06E2,1.61E2,5.63E2,4.13E2,2.83E2,1.51E2,6.83E2,2.23E2,2.14E2,2.3E1,4.32E2,2.74E2,5.5E1,1.06E2,4.79E2,8.4E1,2.33E2,1.8E2,2.54E2,2.9E1,8.6E1,6.5E1,3.63E2,3.2E2,7.7E1,1.46E2,1.15E2,9.9E1,1.9E1,4E0,2.06E2,2.26E2,2.41E2,3.3E1,4.1E1,1.4E1,1.6E1,9E1,3.82E2,9.7E1,4.6E1,3.8E1,1.05E2,1.28E2,1.48E2,3.2E1,5.3E1,2.01E2,3.2E1,5.4E1,5.3E1,3.1E2,1.76E2,1.44E2,6.1E1,1.6E1,9.1E1,5.5E1,6.6E1,4.9E1,7.7E1,2.2E1,1.2E1,7E0,1E0,3E0,1.2E2,8.6E1,1.46E2,8E1,2.03E2,3.8E1,2.5E1,8E0,2.2E1,1.9E1,7E0,7E0,1.5E1,1E0,2.5E1,6.5E1,2.12E2,1.7E2,8.2E1,1.5E1,1.5E1,3.1E1,4E0,3.4E1,2.6E1,7.9E1,9E1,3.8E1,5.5E1,9.3E1,8E0,2.4E1,8E0,4.5E1,1.11E2,9E1],"tree_param":{"num_deleted":"0","num_feature":"27","num_nodes":"111","size_leaf_vector":"1"}},{"base_weights":[-3.4908312E-3,-5.0609875E-1,8.3957076E-1,-7.503266E-1,-1.3253614E-1,4.776592E-1,1.4857017E0,-8.7332344E-1,-5.9955543E-1,-3.2234657E-1,7.472624E-3,3.5428578E-1,7.405383E-1,1.2488729E0,2.0258203E0,-1.0000397E0,-8.118263E-1,-6.6231924E-1,-4.9618965E-1,-4.048014E-1,-2.5283906E-1,-8.331675E-2,1.0840446E-1,2.4153875E-1,4.2707503E-1,6.540171E-1,4.314277E-2,1.1043243E0,7.440933E-2,1.18702464E-1,8.795267E-2,-4.7912072E-2,-6.219836E-2,-4.3952484E-2,-7.63825E-1,-3.6181714E-2,-5.937573E-1,-2.8586432E-2,-4.4801033E-1,-4.8009154E-1,-3.12297E-1,-2.837358E-1,-1.276067E-1,-1.9996189E-1,-1.963804E-2,4.8070062E-2,1.9646911E-1,1.5581727E-1,3.2284692E-1,3.378221E-1,5.180566E-1,5.589821E-1,3.6109056E-2,4.8702013E-2,5.791205E-2,-4.0195625E-2,-3.565939E-2,-1.9879928E-2,-3.0412747E-2,-2.3597537E-2,-1.8634094E-2,-2.5173431E-2,-1.843487E-2,-1.661587E-2,-1.1981203E-2,-1.6982352E-2,-1.2774268E-2,-1.0528525E-2,-1.0230344E-3,-2.6318803E-2,-9.524322E-3,2.503844E-3,-2.6550083E-3,3.8769983E-3,-2.968587E-4,5.2625644E-3,1.1399684E-2,-9.482036E-5,9.03697E-3,1.2969889E-2,1.7977394E-2,1.2747573E-2,1.7735088E-2,2.3440536E-2,2.8647294E-2,2.2667676E-2,2.9897517E-2],"categories":[],"categories_nodes":[],"categories_segments":[],"categories_sizes":[],"default_left":[0,0,0,0,0,0,0,0,0,0,0,0,0,0,0,1,0,0,0,0,0,0,0,0,0,0,0,0,0,0,0,0,0,0,0,0,0,0,0,0,0,0,0,0,0,0,0,0,0,0,0,0,0,0,0,0,0,0,0,0,0,0,0,0,0,0,0,0,0,0,0,0,0,0,0,0,0,0,0,0,0,0,0,0,0,0,0],"id":3,"left_children":[1,3,5,7,9,11,13,15,17,19,21,23,25,27,29,31,33,35,37,39,41,43,45,47,49,51,-1,53,-1,-1,-1,-1,-1,-1,55,-1,57,-1,59,61,63,65,67,69,71,73,75,77,79,81,83,85,-1,-1,-1,-1,-1,-1,-1,-1,-1,-1,-1,-1,-1,-1,-1,-1,-1,-1,-1,-1,-1,-1,-1,-1,-1,-1,-1,-1,-1,-1,-1,-1,-1,-1,-1],"loss_changes":[1.448732E3,1.9532465E2,2.9790704E2,2.3491394E1,2.253811E1,2.6332123E1,5.6055298E1,4.7286987E0,3.4666138E0,1.9608955E0,4.4900026E0,4.4926376E0,2.1978455E0,9.460724E0,8.643555E0,1.1326294E0,8.9035034E-1,1.0879364E0,5.627289E-1,9.853115E-1,7.299099E-1,1.9124484E0,1.2232478E0,1.4970026E0,2.5777893E0,6.133499E-1,0E0,3.0482483E-1,0E0,0E0,0E0,0E0,0E0,0E0,1.5335083E-2,0E0,2.5867844E-1,0E0,8.019447E-2,4.352951E-2,3.0944824E-2,1.6278839E-1,3.601504E-1,1.8118834E-1,3.9457107E-1,2.2169113E-1,2.4630976E-1,4.3270397E-1,1.6987133E-1,1.5296364E-1,1.8011093E-1,1.704979E-2,0E0,0E0,0E0,0E0,0E0,0E0,0E0,0E0,0E0,0E0,0E0,0E0,0E0,0E0,0E0,0E0,0E0,0E0,0E0,0E0,0E0,0E0,0E0,0E0,0E0,0E0,0E0,0E0,0E0,0E0,0E0,0E0,0E0,0E0,0E0],"parents":[2147483647,0,0,1,1,2,2,3,3,4,4,5,5,6,6,7,7,8,8,9,9,10,10,11,11,12,12,13,13,14,14,15,15,16,16,17,17,18,18,19,19,20,20,21,21,22,22,23,23,24,24,25,25,27,27,34,34,36,36,38,38,39,39,40,40,41,41,42,42,43,43,44,44,45,45,46,46,47,47,48,48,49,49,50,50,51,51],"right_children":[2,4,6,8,10,12,14,16,18,20,22,24,26,28,30,32,34,36,38,40,42,44,46,48,50,52,-1,54,-1,-1,-1,-1,-1,-1,56,-1,58,-1,60,62,64,66,68,70,72,74,76,78,80,82,84,86,-1,-1,-1,-1,-1,-1,-1,-1,-1,-1,-1,-1,-1,-1,-1,-1,-1,-1,-1,-1,-1,-1,-1,-1,-1,-1,-1,-1,-1,-1,-1,-1,-1,-1,-1],"split_conditions":[2.90333E-1,-5.462276E-1,1.2362243E0,-9.1082066E-1,-1.87655E-1,7.5291085E-1,2.1791155E0,-1.1118708E0,-6.802801E-1,6E0,2.6119789E-4,6E0,8E0,1.8038573E0,4.7777778E-1,6.2770766E-1,6E0,7E0,5E0,-3.7019563E-1,-2.548881E-1,5E0,8E0,4.1650543E-1,4.3326914E-1,9.082795E-1,4.314277E-2,5E0,7.440933E-2,1.18702464E-1,8.795267E-2,-4.7912072E-2,-6.219836E-2,-4.3952484E-2,-1.031989E0,-3.6181714E-2,5.5555556E-2,-2.8586432E-2,1.1E1,5E0,7.193654E-1,2.1505376E-2,1E1,1.0138359E-1,1.8518518E-1,1.0752688E-1,2.2026602E-2,1.6620498E-2,3E0,1.5874357E-4,3.480439E-1,3E0,3.6109056E-2,4.8702013E-2,5.791205E-2,-4.0195625E-2,-3.565939E-2,-1.9879928E-2,-3.0412747E-2,-2.3597537E-2,-1.8634094E-2,-2.5173431E-2,-1.843487E-2,-1.661587E-2,-1.1981203E-2,-1.6982352E-2,-1.2774268E-2,-1.0528525E-2,-1.0230344E-3,-2.6318803E-2,-9.524322E-3,2.503844E-3,-2.6550083E-3,3.8769983E-3,-2.968587E-4,5.2625644E-3,1.1399684E-2,-9.482036E-5,9.03697E-3,1.2969889E-2,1.7977394E-2,1.2747573E-2,1.7735088E-2,2.3440536E-2,2.8647294E-2,2.2667676E-2,2.9897517E-2],"split_indices":[23,23,23,23,23,23,23,23,23,25,23,25,25,23,21,5,25,25,25,23,23,25,25,23,23,23,0,25,0,0,0,0,0,0,23,0,9,0,25,25,5,11,25,8,17,11,20,6,25,3,8,25,0,0,0,0,0,0,0,0,0,0,0,0,0,0,0,0,0,0,0,0,0,0,0,0,0,0,0,0,0,0,0,0,0,0,0],"split_type":[0,0,0,0,0,0,0,0,0,0,0,0,0,0,0,0,0,0,0,0,0,0,0,0,0,0,0,0,0,0,0,0,0,0,0,0,0,0,0,0,0,0,0,0,0,0,0,0,0,0,0,0,0,0,0,0,0,0,0,0,0,0,0,0,0,0,0,0,0,0,0,0,0,0,0,0,0,0,0,0,0,0,0,0,0,0,0],"sum_hessian":[3.417E3,2.141E3,1.276E3,1.294E3,8.47E2,8.19E2,4.57E2,7.1E2,5.84E2,3.59E2,4.88E2,5.59E2,2.6E2,3.2E2,1.37E2,2.27E2,4.83E2,3.6E2,2.24E2,1.62E2,1.97E2,2.57E2,2.31E2,2.21E2,3.38E2,1.56E2,1.04E2,2.03E2,1.17E2,5.6E1,8.1E1,1.98E2,2.9E1,1.94E2,2.89E2,1.85E2,1.75E2,8.3E1,1.41E2,8.7E1,7.5E1,1.57E2,4E1,9E1,1.67E2,1.38E2,9.3E1,1.09E2,1.12E2,1.73E2,1.65E2,6.9E1,8.7E1,6.5E1,1.38E2,1.53E2,1.36E2,1.4E1,1.61E2,1.03E2,3.8E1,6.9E1,1.8E1,5.6E1,1.9E1,4.9E1,1.08E2,2.2E1,1.8E1,1E0,8.9E1,5.4E1,1.13E2,8.9E1,4.9E1,2.5E1,6.8E1,1.5E1,9.4E1,4.4E1,6.8E1,3.2E1,1.41E2,9.2E1,7.3E1,2.2E1,4.7E1],"tree_param":{"num_deleted":"0","num_feature":"27","num_nodes":"87","size_leaf_vector":"1"}},{"base_weights":[-9.035118E-3,-3.5762185E-1,1.0599473E0,-6.954586E-1,-1.2091461E-2,7.005149E-1,1.6765087E0,-8.666059E-1,-5.670836E-1,-1.4072928E-1,2.3264022E-1,5.205557E-1,9.3353283E-1,1.4246407E0,2.1811018E0,-9.067019E-1,-6.810689E-1,-6.52119E-1,-3.6396402E-1,-3.098358E-1,-3.460009E-3,5.232935E-1,1.6055131E-1,4.5699045E-1,7.60269E-1,8.017424E-1,1.244158E0,1.7283442E0,1.2691725E0,8.843124E-2,2.364021E0,-8.850231E-1,-6.0878634E-2,-2.452571E-2,-3.902315E-2,-6.877414E-1,-3.978139E-1,1.3975787E-1,-4.6168458E-1,-4.3282768E-1,-1.2854803E-1,2.5129592E-1,-5.1789444E-2,4.0986553E-1,3.680081E-2,1.8992643E-1,-4.718685E-1,4.771779E-1,-9.656959E-3,2.9867178E-2,4.426723E-2,8.1760806E-1,1.22516835E-2,1.3221003E0,4.093491E-2,1.0364409E-1,7.5309165E-2,1.1159652E0,1.4026246E0,3.0420884E-2,1.19070135E-1,-4.5460425E-2,-3.5897084E-2,-3.7076615E-2,-2.958093E-2,-2.2276355E-2,-5.7203956E-3,-6.1838445E-4,1.28126E-2,-1.5989926E-2,-3.1054808E-2,-1.5698731E-2,-2.4147201E-2,-9.011187E-4,-1.23149045E-2,7.220616E-3,2.8789988E-2,-4.1430923E-3,1.6192071E-2,7.6297596E-3,2.4705162E-2,5.2736974E-3,1.6868787E-2,-1.3216666E-2,-2.7108619E-2,1.0212488E-2,2.5507672E-2,4.2435642E-2,2.7105454E-2,7.545468E-2,5.702698E-2,3.4168657E-2,5.7630118E-2,7.325251E-2,5.19679E-2],"categories":[],"categories_nodes":[],"categories_segments":[],"categories_sizes":[],"default_left":[0,0,0,0,0,0,0,1,0,0,0,1,0,0,1,1,0,0,0,0,0,0,1,0,0,0,0,0,0,0,0,1,0,0,0,0,1,0,1,0,0,0,1,0,0,0,0,0,0,0,0,0,0,0,0,0,0,0,1,0,0,0,0,0,0,0,0,0,0,0,0,0,0,0,0,0,0,0,0,0,0,0,0,0,0,0,0,0,0,0,0,0,0,0,0],"id":4,"left_children":[1,3,5,7,9,11,13,15,17,19,21,23,25,27,29,31,33,35,37,39,41,43,45,47,49,51,53,55,57,-1,59,61,-1,-1,-1,63,65,67,69,71,73,75,77,79,-1,81,83,85,-1,-1,-1,87,-1,89,-1,-1,-1,91,93,-1,-1,-1,-1,-1,-1,-1,-1,-1,-1,-1,-1,-1,-1,-1,-1,-1,-1,-1,-1,-1,-1,-1,-1,-1,-1,-1,-1,-1,-1,-1,-1,-1,-1,-1,-1],"loss_changes":[1.2744116E3,3.0104565E2,1.8520135E2,2.8158813E1,4.0203453E1,2.1864716E1,3.6163757E1,3.526123E0,1.2682373E1,1.9428318E1,9.135252E0,4.2695007E0,8.459061E0,7.6746216E0,3.4393616E0,1.9888E0,1.5679932E0,4.4914246E0,1.10414715E1,8.305706E0,5.7135677E0,1.7975292E0,6.6660233E0,3.26828E0,7.345772E-1,1.2570267E0,1.1394119E0,2.0827637E0,1.3380127E0,0E0,5.956726E-1,1.0808105E0,0E0,0E0,0E0,1.939743E0,8.5501575E-1,6.5887344E-1,4.0309944E0,1.1766624E0,1.9867644E0,2.4834743E0,4.578818E0,1.2032433E0,0E0,4.1857996E0,9.0134144E-2,2.0107918E0,0E0,0E0,0E0,9.109955E-1,0E0,1.4609528E-1,0E0,0E0,0E0,3.3761597E-1,1.1003113E-1,0E0,0E0,0E0,0E0,0E0,0E0,0E0,0E0,0E0,0E0,0E0,0E0,0E0,0E0,0E0,0E0,0E0,0E0,0E0,0E0,0E0,0E0,0E0,0E0,0E0,0E0,0E0,0E0,0E0,0E0,0E0,0E0,0E0,0E0,0E0,0E0],"parents":[2147483647,0,0,1,1,2,2,3,3,4,4,5,5,6,6,7,7,8,8,9,9,10,10,11,11,12,12,13,13,14,14,15,15,16,16,17,17,18,18,19,19,20,20,21,21,22,22,23,23,24,24,25,25,26,26,27,27,28,28,30,30,31,31,35,35,36,36,37,37,38,38,39,39,40,40,41,41,42,42,43,43,45,45,46,46,47,47,51,51,53,53,57,57,58,58],"right_children":[2,4,6,8,10,12,14,16,18,20,22,24,26,28,30,32,34,36,38,40,42,44,46,48,50,52,54,56,58,-1,60,62,-1,-1,-1,64,66,68,70,72,74,76,78,80,-1,82,84,86,-1,-1,-1,88,-1,90,-1,-1,-1,92,94,-1,-1,-1,-1,-1,-1,-1,-1,-1,-1,-1,-1,-1,-1,-1,-1,-1,-1,-1,-1,-1,-1,-1,-1,-1,-1,-1,-1,-1,-1,-1,-1,-1,-1,-1,-1],"split_conditions":[5.0991344E-1,-5.255236E-1,1.430639E0,-1.0404367E0,9.350011E-2,9.5296156E-1,2.174421E0,6.38841E-1,-3.7873358E-1,-4.2418194E-1,7.927678E-2,4.1428572E-1,4.55419E-1,5.083333E-1,1.9575454E-2,2.1267936E-1,1.5264162E-2,2.1388888E-1,2.5033784E-1,2.1388888E-1,2.5033784E-1,2.4704967E-2,3.52692E-1,3.3462856E0,3.854984E-1,4.2973292E-1,6.552316E-2,1.7461847E-1,1.7238176E0,8.843124E-2,-3.5740778E-1,1.2632701E-1,-6.0878634E-2,-2.452571E-2,-3.902315E-2,-7.69511E-1,4.5723908E-2,-3.137074E-1,4.0314887E-2,1.4835286E-1,1.4814815E-1,2.3379679E-1,7.371176E-1,3.3935082E-1,3.680081E-2,2.7854625E-2,4.07311E0,-7.702888E-1,-9.656959E-3,2.9867178E-2,4.426723E-2,7.867133E-1,1.22516835E-2,3.846154E-1,4.093491E-2,1.0364409E-1,7.5309165E-2,6.0925573E-1,7.7219024E-2,3.0420884E-2,1.19070135E-1,-4.5460425E-2,-3.5897084E-2,-3.7076615E-2,-2.958093E-2,-2.2276355E-2,-5.7203956E-3,-6.1838445E-4,1.28126E-2,-1.5989926E-2,-3.1054808E-2,-1.5698731E-2,-2.4147201E-2,-9.011187E-4,-1.23149045E-2,7.220616E-3,2.8789988E-2,-4.1430923E-3,1.6192071E-2,7.6297596E-3,2.4705162E-2,5.2736974E-3,1.6868787E-2,-1.3216666E-2,-2.7108619E-2,1.0212488E-2,2.5507672E-2,4.2435642E-2,2.7105454E-2,7.545468E-2,5.702698E-2,3.4168657E-2,5.7630118E-2,7.325251E-2,5.19679E-2],"split_indices":[22,22,22,22,22,22,22,5,0,0,12,13,0,21,3,4,1,21,5,21,5,1,2,0,0,5,2,5,22,0,0,10,0,0,0,22,4,0,8,14,9,5,4,0,0,0,0,0,0,0,0,19,0,19,0,0,0,8,2,0,0,0,0,0,0,0,0,0,0,0,0,0,0,0,0,0,0,0,0,0,0,0,0,0,0,0,0,0,0,0,0,0,0,0,0],"split_type":[0,0,0,0,0,0,0,0,0,0,0,0,0,0,0,0,0,0,0,0,0,0,0,0,0,0,0,0,0,0,0,0,0,0,0,0,0,0,0,0,0,0,0,0,0,0,0,0,0,0,0,0,0,0,0,0,0,0,0,0,0,0,0,0,0,0,0,0,0,0,0,0,0,0,0,0,0,0,0,0,0,0,0,0,0,0,0,0,0,0,0,0,0,0,0],"sum_hessian":[3.418E3,2.578E3,8.4E2,1.303E3,1.275E3,5.32E2,3.08E2,5.56E2,7.47E2,8.36E2,4.39E2,3.02E2,2.3E2,2.08E2,1E2,4.54E2,1.02E2,5.25E2,2.22E2,3.74E2,4.62E2,8.6E1,3.53E2,2.41E2,6.1E1,1.64E2,6.6E1,6.7E1,1.41E2,3.4E1,6.6E1,4.28E2,2.6E1,3.7E1,6.5E1,4.59E2,6.6E1,3.6E1,1.86E2,2.22E2,1.52E2,7.3E1,3.89E2,5.8E1,2.8E1,3.38E2,1.5E1,2.34E2,7E0,2.9E1,3.2E1,1.59E2,5E0,5.4E1,1.2E1,2.3E1,4.4E1,7E1,7.1E1,1E0,6.5E1,3.7E2,5.8E1,2.9E2,1.69E2,5.6E1,1E1,1.6E1,2E1,1E2,8.6E1,6.8E1,1.54E2,7.9E1,7.3E1,5.6E1,1.7E1,3.6E2,2.9E1,1.5E1,4.3E1,2.16E2,1.22E2,5E0,1E1,2.6E1,2.08E2,1.41E2,1.8E1,2.3E1,3.1E1,7E0,6.3E1,5.8E1,1.3E1],"tree_param":{"num_deleted":"0","num_feature":"27","num_nodes":"95","size_leaf_vector":"1"}},{"base_weights":[6.3029905E-3,-5.1123595E-1,6.9870573E-1,-7.3433024E-1,-2.5354084E-1,3.9171225E-1,1.3559908E0,-8.264129E-1,-5.396094E-1,-3.8156396E-1,4.0857095E-2,2.1047717E-1,7.3671144E-1,1.1272652E0,1.8210733E0,-9.1871417E-1,-7.544058E-1,-6.734394E-1,-4.1256E-1,-5.013956E-1,-2.426305E-1,-1.4989725E-1,1.9643511E-1,1.15388595E-1,4.5801392E-1,5.8646995E-1,1.0509845E0,1.0054042E0,9.5856555E-2,1.5583682E0,1.1962799E-1,-5.2888185E-2,-4.4138994E-2,-4.0385142E-2,-7.0257133E-1,-4.7097396E-2,-6.3388395E-1,-2.5865177E-2,-3.34064E-1,-5.688605E-1,-4.3139306E-1,-3.195186E-1,-1.6252272E-1,-2.815163E-1,-6.419294E-2,1.2752027E-2,2.6356238E-1,2.3304237E-2,2.121355E-1,3.1989825E-1,5.9261423E-1,4.094755E-1,6.621394E-1,8.3334166E-1,5.917267E-2,7.984502E-1,1.1936187E0,6.699183E-2,8.995333E-2,-3.6785137E-2,-3.1373546E-2,-3.6451917E-2,-2.9067282E-2,-1.8904166E-2,-1.3004056E-2,-2.5134284E-2,-3.1531326E-2,-2.3880212E-2,-1.7807957E-2,-1.7960863E-2,-1.2610001E-2,-1.0773676E-2,-2.6111847E-3,-1.7306127E-2,-1.1035006E-2,-7.84099E-3,-2.481906E-4,-7.103928E-4,7.4790567E-3,1.565786E-2,7.937099E-3,-3.6197142E-3,3.9182766E-3,6.74322E-3,1.662768E-2,2.086259E-2,1.3303093E-2,2.5325192E-2,3.2960135E-2,1.2306603E-2,2.292291E-2,3.685673E-2,2.4393896E-2,3.1573847E-2,4.5206808E-2,3.0718455E-2,4.765683E-2,4.8095338E-2,6.9972865E-2],"categories":[],"categories_nodes":[],"categories_segments":[],"categories_sizes":[],"default_left":[0,0,0,0,0,0,0,0,0,0,0,0,0,0,0,0,0,0,0,0,0,0,0,0,0,0,0,0,0,0,0,0,0,0,0,0,0,0,0,0,0,0,0,0,0,0,1,0,0,0,0,0,0,0,0,0,0,0,0,0,0,0,0,0,0,0,0,0,0,0,0,0,0,0,0,0,0,0,0,0,0,0,0,0,0,0,0,0,0,0,0,0,0,0,0,0,0,0,0],"id":5,"left_children":[1,3,5,7,9,11,13,15,17,19,21,23,25,27,29,31,33,35,37,39,41,43,45,47,49,51,53,55,-1,57,-1,-1,-1,-1,59,-1,61,-1,63,65,67,69,71,73,75,77,79,81,83,85,87,89,91,93,-1,95,97,-1,-1,-1,-1,-1,-1,-1,-1,-1,-1,-1,-1,-1,-1,-1,-1,-1,-1,-1,-1,-1,-1,-1,-1,-1,-1,-1,-1,-1,-1,-1,-1,-1,-1,-1,-1,-1,-1,-1,-1,-1,-1],"loss_changes":[1.2273319E3,1.1249481E2,2.9507977E2,1.8380981E1,3.4350945E1,6.2370895E1,4.7518555E1,4.0324707E0,5.503189E0,1.0450226E1,8.250025E0,1.5411564E1,1.5626221E1,2.8392517E1,1.9091614E1,6.002197E-1,5.5140686E-1,1.1447601E0,1.2824726E0,1.360321E0,1.7712345E0,1.3919687E0,1.8831506E0,4.2356815E0,3.1938782E0,2.876236E0,2.1851807E0,9.758667E0,0E0,3.2177734E0,0E0,0E0,0E0,0E0,6.8351746E-2,0E0,3.0606842E-1,0E0,2.4036217E-1,3.7784195E-1,4.2440033E-1,3.1027412E-1,8.472893E-1,1.1613703E-1,4.2165962E-1,1.5705888E-1,5.32526E-1,1.2966479E0,2.1138725E0,3.7117195E-1,1.8790054E-1,4.7123146E-1,1.7705841E0,7.214928E-2,0E0,3.2300491E0,5.4265747E0,0E0,0E0,0E0,0E0,0E0,0E0,0E0,0E0,0E0,0E0,0E0,0E0,0E0,0E0,0E0,0E0,0E0,0E0,0E0,0E0,0E0,0E0,0E0,0E0,0E0,0E0,0E0,0E0,0E0,0E0,0E0,0E0,0E0,0E0,0E0,0E0,0E0,0E0,0E0,0E0,0E0,0E0],"parents":[2147483647,0,0,1,1,2,2,3,3,4,4,5,5,6,6,7,7,8,8,9,9,10,10,11,11,12,12,13,13,14,14,15,15,16,16,17,17,18,18,19,19,20,20,21,21,22,22,23,23,24,24,25,25,26,26,27,27,29,29,34,34,36,36,38,38,39,39,40,40,41,41,42,42,43,43,44,44,45,45,46,46,47,47,48,48,49,49,50,50,51,51,52,52,53,53,55,55,56,56],"right_children":[2,4,6,8,10,12,14,16,18,20,22,24,26,28,30,32,34,36,38,40,42,44,46,48,50,52,54,56,-1,58,-1,-1,-1,-1,60,-1,62,-1,64,66,68,70,72,74,76,78,80,82,84,86,88,90,92,94,-1,96,98,-1,-1,-1,-1,-1,-1,-1,-1,-1,-1,-1,-1,-1,-1,-1,-1,-1,-1,-1,-1,-1,-1,-1,-1,-1,-1,-1,-1,-1,-1,-1,-1,-1,-1,-1,-1,-1,-1,-1,-1,-1,-1],"split_conditions":[1.00351796E-1,-6.802801E-1,1.2362243E0,2.025E3,2.025E3,2.025E3,2.025E3,-1.0572276E0,-9.898864E-1,-3.225729E-1,-3.7019563E-1,7.5291085E-1,6.501954E-1,2.8096235E0,2.1791155E0,-1.2226316E0,2.024E3,-1.2645624E0,6E0,2.024E3,2.024E3,6E0,4E0,2.024E3,2.024E3,5E0,6E0,1.8038573E0,9.5856555E-2,1.6464702E0,1.1962799E-1,-5.2888185E-2,-4.4138994E-2,-4.0385142E-2,9E0,-4.7097396E-2,5E0,-2.5865177E-2,-8.5798126E-1,8.6021505E-2,8E0,-1.1127267E-1,9E0,3E0,-5.5873954E-1,2.2857143E-1,8.788904E-2,3.5056716E-1,4.1650543E-1,4.072348E-2,7E0,2.90333E-1,3.2533553E-1,8.20796E-1,5.917267E-2,2.024E3,2.024E3,6.699183E-2,8.995333E-2,-3.6785137E-2,-3.1373546E-2,-3.6451917E-2,-2.9067282E-2,-1.8904166E-2,-1.3004056E-2,-2.5134284E-2,-3.1531326E-2,-2.3880212E-2,-1.7807957E-2,-1.7960863E-2,-1.2610001E-2,-1.0773676E-2,-2.6111847E-3,-1.7306127E-2,-1.1035006E-2,-7.84099E-3,-2.481906E-4,-7.103928E-4,7.4790567E-3,1.565786E-2,7.937099E-3,-3.6197142E-3,3.9182766E-3,6.74322E-3,1.662768E-2,2.086259E-2,1.3303093E-2,2.5325192E-2,3.2960135E-2,1.2306603E-2,2.292291E-2,3.685673E-2,2.4393896E-2,3.1573847E-2,4.5206808E-2,3.0718455E-2,4.765683E-2,4.8095338E-2,6.9972865E-2],"split_indices":[23,23,23,24,24,24,24,23,23,23,23,23,23,23,23,23,24,23,25,24,24,25,25,24,24,25,25,23,0,23,0,0,0,0,25,0,25,0,23,11,25,23,25,25,23,13,4,23,23,14,25,23,12,23,0,24,24,0,0,0,0,0,0,0,0,0,0,0,0,0,0,0,0,0,0,0,0,0,0,0,0,0,0,0,0,0,0,0,0,0,0,0,0,0,0,0,0,0,0],"split_type":[0,0,0,0,0,0,0,0,0,0,0,0,0,0,0,0,0,0,0,0,0,0,0,0,0,0,0,0,0,0,0,0,0,0,0,0,0,0,0,0,0,0,0,0,0,0,0,0,0,0,0,0,0,0,0,0,0,0,0,0,0,0,0,0,0,0,0,0,0,0,0,0,0,0,0,0,0,0,0,0,0,0,0,0,0,0,0,0,0,0,0,0,0,0,0,0,0,0,0],"sum_hessian":[3.423E3,1.959E3,1.464E3,1.049E3,9.1E2,9.99E2,4.65E2,7.1E2,3.39E2,6.34E2,2.76E2,6.56E2,3.43E2,3.14E2,1.51E2,3.06E2,4.04E2,1.63E2,1.76E2,3.39E2,2.95E2,1.24E2,1.52E2,4.75E2,1.81E2,2.34E2,1.09E2,2.74E2,4E1,1.06E2,4.5E1,5.7E1,2.49E2,1.92E2,2.12E2,1.8E1,1.45E2,7.3E1,1.03E2,1.69E2,1.7E2,1.49E2,1.46E2,4.8E1,7.6E1,4.1E1,1.11E2,2.44E2,2.31E2,9.1E1,9E1,7.2E1,1.62E2,4.4E1,6.5E1,1.33E2,1.41E2,5.9E1,4.7E1,1.41E2,7.1E1,4.7E1,9.8E1,6.2E1,4.1E1,8.6E1,8.3E1,1.02E2,6.8E1,9.1E1,5.8E1,9.8E1,4.8E1,2.1E1,2.7E1,2.9E1,4.7E1,3.5E1,6E0,7.4E1,3.7E1,8.9E1,1.55E2,1.42E2,8.9E1,3E1,6.1E1,4.3E1,4.7E1,1.8E1,5.4E1,1.11E2,5.1E1,1.4E1,3E1,6.3E1,7E1,6.9E1,7.2E1],"tree_param":{"num_deleted":"0","num_feature":"27","num_nodes":"99","size_leaf_vector":"1"}},{"base_weights":[4.7615E-4,-3.143504E-1,1.0045903E0,-6.3326985E-1,-5.3553074E-3,7.340837E-1,1.6667975E0,-7.8385645E-1,-5.188395E-1,-1.3425386E-1,2.1775968E-1,5.438909E-1,1.0004649E0,1.413465E0,2.0188785E0,-8.197639E-1,-6.1236024E-1,-5.883486E-1,-3.13128E-1,-2.708996E-1,-1.9808872E-4,-4.088134E-1,2.4010226E-1,4.9355677E-1,8.131728E-1,8.545448E-1,1.2341702E0,5.2620996E-2,1.5626662E0,8.175037E-2,1.10616446E-1,-8.0004746E-1,-5.5564087E-2,-2.1977486E-2,-7.0413214E-1,-6.259732E-1,-3.722852E-1,1.516477E-1,-4.1068947E-1,-3.8454157E-1,-1.02206334E-1,3.2830748E-1,-4.511387E-2,-1.0637402E-2,-2.482087E-2,1.1547255E-1,3.8315275E-1,3.7531418E-1,5.8265644E-1,8.3963484E-1,1.4285998E-2,7.2900623E-1,9.9705505E-1,6.670181E-2,5.0573736E-2,6.05698E-2,1.6946579E0,-4.1164834E-2,-3.2225274E-2,-3.662204E-2,-2.4042604E-2,-3.3950493E-2,-2.6471654E-2,-2.416716E-2,-1.2040713E-2,-5.881098E-4,1.2922612E-2,-1.5131945E-2,-2.8746238E-2,-1.3474514E-2,-2.2270821E-2,-6.7745463E-4,-1.086983E-2,9.338609E-3,2.784263E-2,-1.3321375E-2,5.2752305E-4,-1.5900061E-4,1.3137862E-2,3.1564172E-2,1.7075969E-2,1.9946128E-2,2.9601937E-3,3.0076576E-2,3.8039607E-3,3.500206E-2,4.680985E-2,3.0496327E-2,4.2237286E-2,5.1244736E-2,3.040195E-2,9.223219E-2,7.072561E-2],"categories":[],"categories_nodes":[],"categories_segments":[],"categories_sizes":[],"default_left":[0,0,0,0,0,0,0,1,0,0,0,1,0,0,1,1,0,0,0,0,0,0,0,0,0,0,0,0,1,0,0,1,0,0,0,0,0,0,1,0,0,0,1,0,0,0,0,1,0,0,0,0,0,0,0,0,0,0,0,0,0,0,0,0,0,0,0,0,0,0,0,0,0,0,0,0,0,0,0,0,0,0,0,0,0,0,0,0,0,0,0,0,0],"id":6,"left_children":[1,3,5,7,9,11,13,15,17,19,21,23,25,27,29,31,33,35,37,39,41,43,45,47,49,51,53,-1,55,-1,-1,57,-1,-1,59,61,63,65,67,69,71,73,75,-1,-1,77,79,81,83,85,-1,87,89,-1,-1,-1,91,-1,-1,-1,-1,-1,-1,-1,-1,-1,-1,-1,-1,-1,-1,-1,-1,-1,-1,-1,-1,-1,-1,-1,-1,-1,-1,-1,-1,-1,-1,-1,-1,-1,-1,-1,-1],"loss_changes":[1.0767106E3,2.5552264E2,1.4441028E2,2.1580902E1,3.7933857E1,2.8790192E1,1.8106873E1,2.8787842E0,1.0225327E1,1.5313919E1,6.8597984E0,4.207039E0,7.129898E0,5.897003E0,3.5118103E0,1.703125E0,1.2605515E0,4.1811676E0,8.496302E0,7.897341E0,6.2562113E0,1.8638182E-1,8.281591E0,2.8260498E0,4.8588562E-1,1.974617E0,6.522217E-1,0E0,2.4444885E0,0E0,0E0,1.0098877E0,0E0,0E0,4.601288E-2,2.0009003E0,1.095479E0,5.789863E-1,2.5588474E0,1.60989E0,1.7127464E0,1.5457025E0,4.5979E0,0E0,0E0,4.3872375E0,2.0261269E0,9.241638E-1,1.5127869E0,5.115509E-3,0E0,6.424751E-1,1.1327362E-1,0E0,0E0,0E0,2.4794006E-1,0E0,0E0,0E0,0E0,0E0,0E0,0E0,0E0,0E0,0E0,0E0,0E0,0E0,0E0,0E0,0E0,0E0,0E0,0E0,0E0,0E0,0E0,0E0,0E0,0E0,0E0,0E0,0E0,0E0,0E0,0E0,0E0,0E0,0E0,0E0,0E0],"parents":[2147483647,0,0,1,1,2,2,3,3,4,4,5,5,6,6,7,7,8,8,9,9,10,10,11,11,12,12,13,13,14,14,15,15,16,16,17,17,18,18,19,19,20,20,21,21,22,22,23,23,24,24,25,25,26,26,28,28,31,31,34,34,35,35,36,36,37,37,38,38,39,39,40,40,41,41,42,42,45,45,46,46,47,47,48,48,49,49,51,51,52,52,56,56],"right_children":[2,4,6,8,10,12,14,16,18,20,22,24,26,28,30,32,34,36,38,40,42,44,46,48,50,52,54,-1,56,-1,-1,58,-1,-1,60,62,64,66,68,70,72,74,76,-1,-1,78,80,82,84,86,-1,88,90,-1,-1,-1,92,-1,-1,-1,-1,-1,-1,-1,-1,-1,-1,-1,-1,-1,-1,-1,-1,-1,-1,-1,-1,-1,-1,-1,-1,-1,-1,-1,-1,-1,-1,-1,-1,-1,-1,-1,-1],"split_conditions":[5.623507E-1,-5.255236E-1,1.6721987E0,-1.0404367E0,7.440532E-2,1.0968369E0,2.2650185E0,6.38841E-1,-3.588062E-1,-3.2139868E-1,1.4312977E-3,5.0427353E-1,4.215075E-1,-1.675734E-1,1.9575454E-2,2.1267936E-1,4.5176607E-2,1.8226257E-1,2.5033784E-1,2.1388888E-1,2.5033784E-1,4.07311E0,2.7854625E-2,7.853191E-1,2.2737038E0,1.3972337E0,1.0530946E-1,5.2620996E-2,1.1834339E-1,8.175037E-2,1.10616446E-1,1.2632701E-1,-5.5564087E-2,-2.1977486E-2,2.025E3,2.025E3,-7.3315746E-1,-3.137074E-1,6.989247E-2,1.6483591E-1,1.4814815E-1,2.025E3,1.333076E-1,-1.0637402E-2,-2.482087E-2,5.06993E-1,6.8436146E-2,2.5589773E-1,4.9190643E-1,2.167282E-1,1.4285998E-2,9.535115E-2,2.8523934E-1,6.670181E-2,5.0573736E-2,6.05698E-2,9.3869275E-1,-4.1164834E-2,-3.2225274E-2,-3.662204E-2,-2.4042604E-2,-3.3950493E-2,-2.6471654E-2,-2.416716E-2,-1.2040713E-2,-5.881098E-4,1.2922612E-2,-1.5131945E-2,-2.8746238E-2,-1.3474514E-2,-2.2270821E-2,-6.7745463E-4,-1.086983E-2,9.338609E-3,2.784263E-2,-1.3321375E-2,5.2752305E-4,-1.5900061E-4,1.3137862E-2,3.1564172E-2,1.7075969E-2,1.9946128E-2,2.9601937E-3,3.0076576E-2,3.8039607E-3,3.500206E-2,4.680985E-2,3.0496327E-2,4.2237286E-2,5.1244736E-2,3.040195E-2,9.223219E-2,7.072561E-2],"split_indices":[22,22,22,22,22,22,22,5,0,0,8,9,0,0,3,4,10,7,5,21,5,0,0,22,0,22,4,0,5,0,0,10,0,0,24,24,22,0,11,14,9,24,16,0,0,19,16,14,5,5,0,18,5,0,0,0,8,0,0,0,0,0,0,0,0,0,0,0,0,0,0,0,0,0,0,0,0,0,0,0,0,0,0,0,0,0,0,0,0,0,0,0,0],"split_type":[0,0,0,0,0,0,0,0,0,0,0,0,0,0,0,0,0,0,0,0,0,0,0,0,0,0,0,0,0,0,0,0,0,0,0,0,0,0,0,0,0,0,0,0,0,0,0,0,0,0,0,0,0,0,0,0,0,0,0,0,0,0,0,0,0,0,0,0,0,0,0,0,0,0,0,0,0,0,0,0,0,0,0,0,0,0,0,0,0,0,0,0,0],"sum_hessian":[3.404E3,2.592E3,8.12E2,1.275E3,1.317E3,5.78E2,2.34E2,5.48E2,7.27E2,8.35E2,4.82E2,3.39E2,2.39E2,1.39E2,9.5E1,4.5E2,9.8E1,5.42E2,1.85E2,4.13E2,4.22E2,1.6E1,4.66E2,2.88E2,5.1E1,1.5E2,8.9E1,4.3E1,9.6E1,3.5E1,6E1,4.25E2,2.5E1,3.6E1,6.2E1,4.6E2,8.2E1,3.2E1,1.53E2,2.46E2,1.67E2,5E1,3.72E2,6E0,1E1,2.5E2,2.16E2,1.26E2,1.62E2,4.8E1,3E0,8.3E1,6.7E1,5.8E1,3.1E1,2.9E1,6.7E1,3.66E2,5.9E1,5.3E1,9E0,2.93E2,1.67E2,4.3E1,3.9E1,1.3E1,1.9E1,9.4E1,5.9E1,8.7E1,1.59E2,9.5E1,7.2E1,3.2E1,1.8E1,7.4E1,2.98E2,1.39E2,1.11E2,2.9E1,1.87E2,1.17E2,9E0,1.56E2,6E0,2.3E1,2.5E1,4.4E1,3.9E1,6.1E1,6E0,4E1,2.7E1],"tree_param":{"num_deleted":"0","num_feature":"27","num_nodes":"93","size_leaf_vector":"1"}},{"base_weights":[-2.264823E-3,-4.495371E-1,6.543978E-1,-6.489158E-1,-2.0129319E-1,3.5719815E-1,1.3219208E0,-7.27961E-1,-4.4033465E-1,-3.1476983E-1,6.3942514E-2,2.2894868E-1,6.010704E-1,1.1006169E0,1.9045486E0,-4.759028E-2,-7.042442E-1,-2.955155E-2,-3.829774E-1,-4.2046362E-1,-1.7699869E-1,-1.3084486E-1,1.9069628E-1,1.7578065E-1,4.9615288E-1,4.837652E-1,7.147764E-1,9.956927E-1,1.4333713E0,7.930353E-2,1.095373E-1,-7.3449767E-1,-5.6270295E-1,-4.859217E-1,-3.0068463E-1,-4.7441828E-1,-3.674343E-1,-2.543026E-1,-1.0008149E-1,-2.5495908E-1,-6.0826555E-2,6.436107E-2,2.5216126E-1,1.05403505E-1,3.9708507E-1,3.360655E-1,5.6808114E-1,2.9516962E-1,6.0105485E-1,8.447929E-1,5.824958E-1,8.3480996E-1,1.0905067E0,5.8146656E-2,7.97502E-2,-3.853979E-2,-3.1808343E-2,-3.034617E-2,-2.1634456E-2,-3.549767E-2,-2.2237923E-2,-2.043056E-2,-1.2774249E-2,-2.1120867E-2,-2.701935E-2,-2.0128237E-2,-1.4219795E-2,-1.3872951E-2,-5.5486574E-3,-7.7212467E-3,2.117747E-3,-1.3748141E-2,-8.472598E-3,-6.89189E-3,-1.5018553E-3,6.733603E-4,7.7648335E-3,9.071924E-3,1.5214394E-2,1.3813104E-3,9.492697E-3,1.7480057E-2,3.339213E-2,1.2685482E-2,2.0417089E-2,2.9712245E-2,1.6090723E-2,9.564655E-3,1.8570816E-2,2.4496386E-2,3.4355517E-2,3.505292E-2,4.710202E-2,3.201125E-2,2.123253E-2,4.7789052E-2,3.2380227E-2,6.02252E-2,4.6650484E-2],"categories":[],"categories_nodes":[],"categories_segments":[],"categories_sizes":[],"default_left":[0,0,0,0,0,0,0,0,0,0,0,0,0,0,0,0,0,0,0,0,0,0,0,0,0,0,0,0,0,0,0,0,0,0,0,0,0,0,0,0,0,0,0,0,0,0,0,0,0,0,0,1,1,0,0,0,0,0,0,0,0,0,0,0,0,0,0,0,0,0,0,0,0,0,0,0,0,0,0,0,0,0,0,0,0,0,0,0,0,0,0,0,0,0,0,0,0,0,0],"id":7,"left_children":[1,3,5,7,9,11,13,15,17,19,21,23,25,27,29,-1,31,-1,33,35,37,39,41,43,45,47,49,51,53,-1,-1,55,57,59,61,63,65,67,69,71,73,75,77,79,81,83,85,87,89,91,93,95,97,-1,-1,-1,-1,-1,-1,-1,-1,-1,-1,-1,-1,-1,-1,-1,-1,-1,-1,-1,-1,-1,-1,-1,-1,-1,-1,-1,-1,-1,-1,-1,-1,-1,-1,-1,-1,-1,-1,-1,-1,-1,-1,-1,-1,-1,-1],"loss_changes":[1.01270215E3,1.0138275E2,2.7667523E2,1.8425568E1,2.7559853E1,3.0138031E1,5.3347107E1,3.6989136E0,2.4963608E0,9.259533E0,6.8147116E0,8.948257E0,4.095871E0,9.535797E0,7.1896057E0,0E0,2.7897034E0,0E0,1.8108253E0,8.614311E-1,1.6394291E0,9.3173075E-1,1.2805567E0,8.243927E0,1.0181427E0,3.5166779E0,2.3800888E0,2.7810822E0,1.3360901E0,0E0,0E0,1.6975708E0,5.192909E-1,6.156502E-1,5.346565E-1,3.7548447E-1,4.3102264E-1,4.3054962E-1,1.1056898E0,2.0114899E-2,1.6421023E-1,2.570802E-1,3.5768318E-1,2.6549273E0,1.4121723E0,1.0473299E-1,2.6623344E-1,4.516859E-1,6.388016E-1,4.8575592E-1,5.117817E-1,1.5097961E0,1.5513763E0,0E0,0E0,0E0,0E0,0E0,0E0,0E0,0E0,0E0,0E0,0E0,0E0,0E0,0E0,0E0,0E0,0E0,0E0,0E0,0E0,0E0,0E0,0E0,0E0,0E0,0E0,0E0,0E0,0E0,0E0,0E0,0E0,0E0,0E0,0E0,0E0,0E0,0E0,0E0,0E0,0E0,0E0,0E0,0E0,0E0,0E0],"parents":[2147483647,0,0,1,1,2,2,3,3,4,4,5,5,6,6,7,7,8,8,9,9,10,10,11,11,12,12,13,13,14,14,16,16,18,18,19,19,20,20,21,21,22,22,23,23,24,24,25,25,26,26,27,27,28,28,31,31,32,32,33,33,34,34,35,35,36,36,37,37,38,38,39,39,40,40,41,41,42,42,43,43,44,44,45,45,46,46,47,47,48,48,49,49,50,50,51,51,52,52],"right_children":[2,4,6,8,10,12,14,16,18,20,22,24,26,28,30,-1,32,-1,34,36,38,40,42,44,46,48,50,52,54,-1,-1,56,58,60,62,64,66,68,70,72,74,76,78,80,82,84,86,88,90,92,94,96,98,-1,-1,-1,-1,-1,-1,-1,-1,-1,-1,-1,-1,-1,-1,-1,-1,-1,-1,-1,-1,-1,-1,-1,-1,-1,-1,-1,-1,-1,-1,-1,-1,-1,-1,-1,-1,-1,-1,-1,-1,-1,-1,-1,-1,-1,-1],"split_conditions":[1.669679E-1,-6.296167E-1,1.1773288E0,-7.527978E-1,2.025E3,5.3372943E-1,2.174421E0,-1.2226316E0,2.025E3,-2.489347E-1,-3.7019563E-1,2.025E3,9.0230983E-1,2.1791155E0,2.1791155E0,-4.759028E-2,2.025E3,-2.955155E-2,-9.1082066E-1,2.024E3,2.024E3,5E0,5E0,6.602594E-1,4E0,2.025E3,5.083333E-1,1.4649957E0,1.561302E0,7.930353E-2,1.095373E-1,-8.918642E-1,-9.898864E-1,-1.1274177E0,5E0,6.913408E-2,9E0,1.00351796E-1,2.6119789E-4,4E0,-5.5873954E-1,-7.939154E-2,-1.4815623E-1,2.024E3,4.238478E-2,3.627928E-1,3.925213E-1,1.403726E-1,7E0,8.7080497E-1,7.851446E-2,1.1077703E-1,1.1315418E-1,5.8146656E-2,7.97502E-2,-3.853979E-2,-3.1808343E-2,-3.034617E-2,-2.1634456E-2,-3.549767E-2,-2.2237923E-2,-2.043056E-2,-1.2774249E-2,-2.1120867E-2,-2.701935E-2,-2.0128237E-2,-1.4219795E-2,-1.3872951E-2,-5.5486574E-3,-7.7212467E-3,2.117747E-3,-1.3748141E-2,-8.472598E-3,-6.89189E-3,-1.5018553E-3,6.733603E-4,7.7648335E-3,9.071924E-3,1.5214394E-2,1.3813104E-3,9.492697E-3,1.7480057E-2,3.339213E-2,1.2685482E-2,2.0417089E-2,2.9712245E-2,1.6090723E-2,9.564655E-3,1.8570816E-2,2.4496386E-2,3.4355517E-2,3.505292E-2,4.710202E-2,3.201125E-2,2.123253E-2,4.7789052E-2,3.2380227E-2,6.02252E-2,4.6650484E-2],"split_indices":[23,23,22,22,24,22,22,23,24,23,23,24,23,23,23,0,24,0,23,24,24,25,25,23,25,24,21,22,22,0,0,23,23,23,25,7,25,23,23,25,23,23,23,24,1,23,14,16,25,22,3,12,16,0,0,0,0,0,0,0,0,0,0,0,0,0,0,0,0,0,0,0,0,0,0,0,0,0,0,0,0,0,0,0,0,0,0,0,0,0,0,0,0,0,0,0,0,0,0],"split_type":[0,0,0,0,0,0,0,0,0,0,0,0,0,0,0,0,0,0,0,0,0,0,0,0,0,0,0,0,0,0,0,0,0,0,0,0,0,0,0,0,0,0,0,0,0,0,0,0,0,0,0,0,0,0,0,0,0,0,0,0,0,0,0,0,0,0,0,0,0,0,0,0,0,0,0,0,0,0,0,0,0,0,0,0,0,0,0,0,0,0,0,0,0,0,0,0,0,0,0],"sum_hessian":[3.446E3,2.05E3,1.396E3,1.136E3,9.14E2,9.67E2,4.29E2,8.22E2,3.14E2,6.4E2,2.74E2,6.35E2,3.32E2,3.13E2,1.16E2,7.5E1,7.47E2,8.4E1,2.3E2,3.61E2,2.79E2,1.08E2,1.66E2,5.31E2,1.04E2,1.66E2,1.66E2,2.41E2,7.2E1,5.8E1,5.8E1,6.12E2,1.35E2,1E2,1.3E2,1.75E2,1.86E2,1.38E2,1.41E2,3.8E1,7E1,5.5E1,1.11E2,4.04E2,1.27E2,3.4E1,7E1,6.5E1,1.01E2,8.1E1,8.5E1,9.3E1,1.48E2,3E1,4.2E1,4.42E2,1.7E2,9.8E1,3.7E1,1.3E1,8.7E1,3.6E1,9.4E1,1.02E2,7.3E1,1.28E2,5.8E1,1.18E2,2E1,1.02E2,3.9E1,2.9E1,9E0,1.9E1,5.1E1,3.6E1,1.9E1,4.9E1,6.2E1,2.11E2,1.93E2,1.1E2,1.7E1,1.8E1,1.6E1,6.2E1,8E0,2.9E1,3.6E1,4.7E1,5.4E1,3.6E1,4.5E1,6E1,2.5E1,5.4E1,3.9E1,8.2E1,6.6E1],"tree_param":{"num_deleted":"0","num_feature":"27","num_nodes":"99","size_leaf_vector":"1"}},{"base_weights":[-7.333692E-3,-3.9708182E-1,6.6875315E-1,-5.98091E-1,-1.2993383E-1,3.851561E-1,1.2875143E0,-6.6243E-1,-3.8555217E-1,-2.1138074E-1,1.3768625E-1,2.1703826E-1,5.752079E-1,1.0810862E0,1.7912775E0,-7.1737534E-1,-5.118507E-1,-4.079954E-1,-1.601747E-1,-2.655723E-1,1.22654205E-2,-9.507478E-2,2.1443881E-1,1.7265847E-1,5.149918E-1,4.733082E-1,7.099023E-1,1.0014029E0,8.361589E-2,1.5032713E0,1.0192342E-1,-4.3709233E-2,-6.831296E-1,-6.623873E-1,-4.544882E-1,-4.586648E-1,-3.317347E-1,-1.91506E-1,7.568963E-2,-3.3369035E-1,-1.815604E-1,-3.194056E-2,2.6639202E-1,-3.7539658E-1,-3.9373267E-2,3.232162E-2,2.5801346E-1,1.2652667E-1,4.135943E-1,1.7569654E-2,2.8642192E-2,4.1276535E-1,6.8126965E-1,6.350895E-1,9.2634434E-1,1.1391889E0,8.685565E-1,7.89306E-2,5.257749E-2,-3.6452726E-2,-3.16414E-2,-2.9145686E-2,-3.7897054E-2,-2.5843179E-2,-1.8208494E-2,-2.5234718E-2,-1.9665657E-2,-1.8694295E-2,-1.3624533E-2,-1.1994044E-2,-3.9426386E-3,-4.5860428E-4,5.3517115E-3,-2.1880712E-2,-1.2731693E-2,-1.1095324E-2,3.838329E-3,-4.8072287E-3,1.8578814E-3,1.9269854E-2,8.968056E-3,-9.769298E-3,-2.1641878E-2,-6.0304063E-3,1.5439141E-3,-2.1857985E-3,9.418549E-3,8.05763E-3,1.5368747E-2,3.3617404E-3,1.0345451E-2,1.8331915E-2,2.7127067E-2,2.3188418E-2,9.948801E-3,3.885371E-2,2.1156503E-2,3.3457194E-2,1.836818E-2,3.4069043E-2,5.0632983E-2,5.0843943E-2,6.750288E-2,3.3865266E-2,4.7667433E-2],"categories":[],"categories_nodes":[],"categories_segments":[],"categories_sizes":[],"default_left":[0,0,0,0,0,0,0,0,0,0,0,0,0,0,0,0,0,0,0,0,0,0,0,0,0,0,0,0,0,1,0,0,0,1,0,0,0,0,0,0,0,0,0,0,0,0,0,0,0,0,0,0,0,0,0,0,0,0,0,0,0,0,0,0,0,0,0,0,0,0,0,0,0,0,0,0,0,0,0,0,0,0,0,0,0,0,0,0,0,0,0,0,0,0,0,0,0,0,0,0,0,0,0,0,0],"id":8,"left_children":[1,3,5,7,9,11,13,15,17,19,21,23,25,27,29,31,33,35,37,39,41,43,45,47,49,51,53,55,-1,57,-1,-1,59,61,63,65,67,69,71,73,75,77,79,81,83,85,87,89,91,-1,-1,93,95,97,99,101,103,-1,-1,-1,-1,-1,-1,-1,-1,-1,-1,-1,-1,-1,-1,-1,-1,-1,-1,-1,-1,-1,-1,-1,-1,-1,-1,-1,-1,-1,-1,-1,-1,-1,-1,-1,-1,-1,-1,-1,-1,-1,-1,-1,-1,-1,-1,-1,-1],"loss_changes":[9.043464E2,1.1682547E2,2.1973004E2,1.6728363E1,2.0430935E1,2.7417E1,3.903589E1,7.509308E0,1.4065857E0,8.705227E0,3.9328241E0,5.9804916E0,5.20903E0,1.1610718E1,4.980377E0,3.1349792E0,1.9268265E0,8.679619E-1,2.214132E-1,3.2471504E0,1.5924909E0,8.4400856E-1,1.3010492E0,4.404706E0,3.5711384E-1,2.652401E0,2.1968155E0,3.60495E0,0E0,2.4585724E-1,0E0,0E0,8.6694336E-1,8.217049E-2,8.82164E-1,2.707634E-1,1.7031479E-1,1.1732447E-1,1.1621552E-2,2.501213E0,2.7373018E0,5.403746E-1,1.483742E-1,8.48937E-3,2.7194726E-1,3.9980015E-1,5.8636475E-1,1.5970035E0,1.8859291E-1,0E0,0E0,1.9031334E0,9.3247604E-1,9.4854355E-1,1.9804764E-1,1.7221222E0,1.4948807E0,0E0,0E0,0E0,0E0,0E0,0E0,0E0,0E0,0E0,0E0,0E0,0E0,0E0,0E0,0E0,0E0,0E0,0E0,0E0,0E0,0E0,0E0,0E0,0E0,0E0,0E0,0E0,0E0,0E0,0E0,0E0,0E0,0E0,0E0,0E0,0E0,0E0,0E0,0E0,0E0,0E0,0E0,0E0,0E0,0E0,0E0,0E0,0E0],"parents":[2147483647,0,0,1,1,2,2,3,3,4,4,5,5,6,6,7,7,8,8,9,9,10,10,11,11,12,12,13,13,14,14,15,15,16,16,17,17,18,18,19,19,20,20,21,21,22,22,23,23,24,24,25,25,26,26,27,27,29,29,32,32,33,33,34,34,35,35,36,36,37,37,38,38,39,39,40,40,41,41,42,42,43,43,44,44,45,45,46,46,47,47,48,48,51,51,52,52,53,53,54,54,55,55,56,56],"right_children":[2,4,6,8,10,12,14,16,18,20,22,24,26,28,30,32,34,36,38,40,42,44,46,48,50,52,54,56,-1,58,-1,-1,60,62,64,66,68,70,72,74,76,78,80,82,84,86,88,90,92,-1,-1,94,96,98,100,102,104,-1,-1,-1,-1,-1,-1,-1,-1,-1,-1,-1,-1,-1,-1,-1,-1,-1,-1,-1,-1,-1,-1,-1,-1,-1,-1,-1,-1,-1,-1,-1,-1,-1,-1,-1,-1,-1,-1,-1,-1,-1,-1,-1,-1,-1,-1,-1,-1],"split_conditions":[2.90333E-1,-5.341799E-1,1.2278286E0,-6.802801E-1,2.3039508E-1,4.1507596E-1,2.174421E0,2.025E3,2.025E3,8.52772E-2,-2.686847E-1,2.025E3,8.955548E-1,2.8096235E0,2.1791155E0,-1.162316E0,-1.1274177E0,-5.153199E-1,-2.752511E-1,-3.7019563E-1,2.025E3,2.025E3,2.025E3,9.082795E-1,4E0,8.941872E-2,4.55419E-1,9.971399E-2,8.361589E-2,7.7219024E-2,1.0192342E-1,-4.3709233E-2,2.024E3,6.1828833E-2,7E0,2.024E3,-7.419704E-1,5E0,2E0,2.025E3,2.025E3,2.024E3,-7.307837E-1,-1.658254E-1,8E0,8.801046E-2,6E0,2.024E3,2.024E3,1.7569654E-2,2.8642192E-2,7.027972E-1,1.4444128E-1,7.867133E-1,1.0731251E0,1.7238176E0,1.4928839E0,7.89306E-2,5.257749E-2,-3.6452726E-2,-3.16414E-2,-2.9145686E-2,-3.7897054E-2,-2.5843179E-2,-1.8208494E-2,-2.5234718E-2,-1.9665657E-2,-1.8694295E-2,-1.3624533E-2,-1.1994044E-2,-3.9426386E-3,-4.5860428E-4,5.3517115E-3,-2.1880712E-2,-1.2731693E-2,-1.1095324E-2,3.838329E-3,-4.8072287E-3,1.8578814E-3,1.9269854E-2,8.968056E-3,-9.769298E-3,-2.1641878E-2,-6.0304063E-3,1.5439141E-3,-2.1857985E-3,9.418549E-3,8.05763E-3,1.5368747E-2,3.3617404E-3,1.0345451E-2,1.8331915E-2,2.7127067E-2,2.3188418E-2,9.948801E-3,3.885371E-2,2.1156503E-2,3.3457194E-2,1.836818E-2,3.4069043E-2,5.0632983E-2,5.0843943E-2,6.750288E-2,3.3865266E-2,4.7667433E-2],"split_indices":[23,22,22,23,22,22,22,24,24,23,23,24,22,23,23,23,23,23,0,23,24,24,24,23,25,20,0,12,0,2,0,0,24,2,25,24,22,25,25,24,24,24,0,0,25,4,25,24,24,0,0,19,14,19,23,22,22,0,0,0,0,0,0,0,0,0,0,0,0,0,0,0,0,0,0,0,0,0,0,0,0,0,0,0,0,0,0,0,0,0,0,0,0,0,0,0,0,0,0,0,0,0,0,0,0],"split_type":[0,0,0,0,0,0,0,0,0,0,0,0,0,0,0,0,0,0,0,0,0,0,0,0,0,0,0,0,0,0,0,0,0,0,0,0,0,0,0,0,0,0,0,0,0,0,0,0,0,0,0,0,0,0,0,0,0,0,0,0,0,0,0,0,0,0,0,0,0,0,0,0,0,0,0,0,0,0,0,0,0,0,0,0,0,0,0,0,0,0,0,0,0,0,0,0,0,0,0,0,0,0,0,0,0],"sum_hessian":[3.43E3,2.176E3,1.254E3,1.241E3,9.35E2,8.61E2,3.93E2,9.51E2,2.9E2,7.17E2,2.18E2,4.58E2,4.03E2,2.81E2,1.12E2,6.94E2,2.57E2,2.63E2,2.7E1,5.77E2,1.4E2,5.4E1,1.64E2,4E2,5.8E1,2.32E2,1.71E2,2.5E2,3.1E1,5.5E1,5.7E1,1.2E2,5.74E2,6.8E1,1.89E2,1.55E2,1.08E2,2.4E1,3E0,3.17E2,2.6E2,1.2E2,2E1,8E0,4.6E1,3.2E1,1.32E2,3.37E2,6.3E1,1.7E1,4.1E1,1.82E2,5E1,1.3E2,4.1E1,1.19E2,1.31E2,4.5E1,1E1,2.93E2,2.81E2,4.1E1,2.7E1,1.09E2,8E1,8.7E1,6.8E1,6E1,4.8E1,1.6E1,8E0,1E0,2E0,1.35E2,1.82E2,2.25E2,3.5E1,6.2E1,5.8E1,7E0,1.3E1,3E0,5E0,2.1E1,2.5E1,2.2E1,1E1,4.6E1,8.6E1,1.95E2,1.42E2,4.9E1,1.4E1,1.46E2,3.6E1,3.5E1,1.5E1,1.14E2,1.6E1,1.3E1,2.8E1,7.9E1,4E1,4.3E1,8.8E1],"tree_param":{"num_deleted":"0","num_feature":"27","num_nodes":"105","size_leaf_vector":"1"}},{"base_weights":[-1.942828E-3,-4.190633E-1,5.678052E-1,-5.541168E-1,-1.2936434E-1,2.9005203E-1,1.1664366E0,-6.2028944E-1,-3.5375264E-1,-2.1076314E-1,7.9232424E-2,1.6803649E-1,4.8368296E-1,9.483092E-1,1.5772002E0,-6.791334E-1,-4.7347343E-1,-3.8021004E-1,-1.4252023E-1,-9.906129E-2,-2.5410798E-1,-9.888235E-2,1.7374866E-1,1.16913356E-1,4.3894285E-1,3.9675108E-1,6.078756E-1,8.8037235E-1,7.4594595E-2,1.3227605E0,1.8667644E0,-7.438804E-1,-6.037255E-1,-5.5879307E-1,-3.5501602E-1,-4.3296382E-1,-3.1675097E-1,-2.7974352E-1,-4.5099705E-2,-1.6232565E-1,1.7243138E-2,-3.0052954E-1,-1.8031445E-1,-1.9050414E-2,-2.9296872E-1,-3.6452606E-2,2.152979E-1,7.319201E-2,3.26739E-1,2.4634664E-1,4.863847E-1,2.4670361E-1,5.048263E-1,5.5566424E-1,4.2857397E-2,6.4028746E-1,9.3742925E-1,1.4021829E0,4.7020435E-2,7.851559E-2,1.0286289E-1,-4.593204E-2,-3.6008712E-2,-3.2580253E-2,-2.7613679E-2,-3.822821E-2,-2.6450172E-2,-2.2239882E-2,-1.4248446E-2,-2.4455754E-2,-1.796718E-2,-1.665291E-2,-1.1453382E-2,-5.439334E-3,-1.4819773E-2,-4.863418E-3,3.5698079E-3,-1.093584E-2,-5.832525E-3,-6.350163E-3,6.172684E-3,-1.933789E-2,-1.1179033E-2,-1.4189783E-2,-2.3218982E-3,-5.4685385E-3,1.2633757E-3,-1.9429045E-2,-8.881045E-3,-2.5531251E-3,6.0283844E-3,6.547918E-3,1.2646385E-2,5.4149603E-4,7.2999294E-3,1.4475241E-2,2.3260845E-2,8.570546E-3,1.49443615E-2,1.8164163E-2,2.886943E-2,7.065491E-3,1.6230844E-2,1.6016947E-2,2.7822642E-2,1.9016342E-2,2.9772947E-2,1.8752657E-2,3.490361E-2,4.8039556E-2,2.6586188E-2,3.4366958E-2,7.119661E-2],"categories":[],"categories_nodes":[],"categories_segments":[],"categories_sizes":[],"default_left":[0,0,0,0,0,0,0,0,0,1,0,0,0,0,0,0,0,0,0,0,0,0,0,0,0,0,0,0,0,1,0,0,0,0,0,0,0,0,0,0,0,0,0,0,0,0,0,0,0,0,0,0,0,0,0,0,1,0,0,0,0,0,0,0,0,0,0,0,0,0,0,0,0,0,0,0,0,0,0,0,0,0,0,0,0,0,0,0,0,0,0,0,0,0,0,0,0,0,0,0,0,0,0,0,0,0,0,0,0,0,0,0,0],"id":9,"left_children":[1,3,5,7,9,11,13,15,17,19,21,23,25,27,29,31,33,35,37,39,41,43,45,47,49,51,53,55,-1,57,59,61,63,65,67,69,71,73,75,77,79,81,83,85,87,89,91,93,95,97,99,101,103,105,-1,107,109,111,-1,-1,-1,-1,-1,-1,-1,-1,-1,-1,-1,-1,-1,-1,-1,-1,-1,-1,-1,-1,-1,-1,-1,-1,-1,-1,-1,-1,-1,-1,-1,-1,-1,-1,-1,-1,-1,-1,-1,-1,-1,-1,-1,-1,-1,-1,-1,-1,-1,-1,-1,-1,-1,-1,-1],"loss_changes":[8.1134955E2,7.7043396E1,2.3959177E2,1.7600159E1,1.0679842E1,2.3237572E1,3.945099E1,8.395477E0,1.8236046E0,2.1632767E0,2.9969292E0,8.355381E0,3.8722153E0,9.802307E0,9.097961E0,3.056488E0,2.7527847E0,8.6047363E-1,5.0874996E-1,9.4461334E-1,1.0591354E0,9.550648E-1,1.0209577E0,4.6731024E0,7.573433E-1,3.5565834E0,1.5410118E0,3.0983887E0,0E0,1.3233337E0,7.7897644E-1,9.2100525E-1,4.7032928E-1,6.2535477E-1,6.5936565E-1,4.8565674E-1,1.2245846E-1,1.3304353E-2,1.5280297E-1,1.8826747E-1,7.204214E-1,1.2272911E0,1.7600946E0,1.8289003E-1,1.2949574E-1,5.203749E-2,2.74724E-1,1.9280763E0,3.1905556E-1,3.1447887E-2,6.4165115E-1,7.506509E-1,1.0694504E0,6.8758774E-1,0E0,5.811424E-1,1.536377E0,1.0958862E-1,0E0,0E0,0E0,0E0,0E0,0E0,0E0,0E0,0E0,0E0,0E0,0E0,0E0,0E0,0E0,0E0,0E0,0E0,0E0,0E0,0E0,0E0,0E0,0E0,0E0,0E0,0E0,0E0,0E0,0E0,0E0,0E0,0E0,0E0,0E0,0E0,0E0,0E0,0E0,0E0,0E0,0E0,0E0,0E0,0E0,0E0,0E0,0E0,0E0,0E0,0E0,0E0,0E0,0E0,0E0],"parents":[2147483647,0,0,1,1,2,2,3,3,4,4,5,5,6,6,7,7,8,8,9,9,10,10,11,11,12,12,13,13,14,14,15,15,16,16,17,17,18,18,19,19,20,20,21,21,22,22,23,23,24,24,25,25,26,26,27,27,29,29,30,30,31,31,32,32,33,33,34,34,35,35,36,36,37,37,38,38,39,39,40,40,41,41,42,42,43,43,44,44,45,45,46,46,47,47,48,48,49,49,50,50,51,51,52,52,53,53,55,55,56,56,57,57],"right_children":[2,4,6,8,10,12,14,16,18,20,22,24,26,28,30,32,34,36,38,40,42,44,46,48,50,52,54,56,-1,58,60,62,64,66,68,70,72,74,76,78,80,82,84,86,88,90,92,94,96,98,100,102,104,106,-1,108,110,112,-1,-1,-1,-1,-1,-1,-1,-1,-1,-1,-1,-1,-1,-1,-1,-1,-1,-1,-1,-1,-1,-1,-1,-1,-1,-1,-1,-1,-1,-1,-1,-1,-1,-1,-1,-1,-1,-1,-1,-1,-1,-1,-1,-1,-1,-1,-1,-1,-1,-1,-1,-1,-1,-1,-1],"split_conditions":[1.00351796E-1,-4.1779962E-1,1.0968369E0,-6.802801E-1,2.3039508E-1,4.1507596E-1,1.9102471E0,2.025E3,2.025E3,2.5757652E-2,-2.686847E-1,2.025E3,9.082795E-1,2.8096235E0,2.1791155E0,-9.719918E-1,-9.898864E-1,-4.9589345E-1,-5.405442E-1,-1.3837919E-1,2.025E3,-8.26199E-2,2.025E3,6.602594E-1,1.7962301E-1,2.025E3,2.025E3,9.0230983E-1,7.4594595E-2,7.7219024E-2,2.4019134E0,-1.2645624E0,2.024E3,-1.2645624E0,5E0,2.024E3,5.4386854E-1,1.0811287E-2,-2.752511E-1,2.024E3,3.0180765E-2,-2.686847E-1,-6.802801E-1,4.3426868E-1,4.4534785E-1,-2.0358251E-1,6E0,2.024E3,2.024E3,7E0,6E0,-3.706927E-1,2.90333E-1,4.2994935E-3,4.2857397E-2,2.025E3,7.7219024E-2,1.7174515E-1,4.7020435E-2,7.851559E-2,1.0286289E-1,-4.593204E-2,-3.6008712E-2,-3.2580253E-2,-2.7613679E-2,-3.822821E-2,-2.6450172E-2,-2.2239882E-2,-1.4248446E-2,-2.4455754E-2,-1.796718E-2,-1.665291E-2,-1.1453382E-2,-5.439334E-3,-1.4819773E-2,-4.863418E-3,3.5698079E-3,-1.093584E-2,-5.832525E-3,-6.350163E-3,6.172684E-3,-1.933789E-2,-1.1179033E-2,-1.4189783E-2,-2.3218982E-3,-5.4685385E-3,1.2633757E-3,-1.9429045E-2,-8.881045E-3,-2.5531251E-3,6.0283844E-3,6.547918E-3,1.2646385E-2,5.4149603E-4,7.2999294E-3,1.4475241E-2,2.3260845E-2,8.570546E-3,1.49443615E-2,1.8164163E-2,2.886943E-2,7.065491E-3,1.6230844E-2,1.6016947E-2,2.7822642E-2,1.9016342E-2,2.9772947E-2,1.8752657E-2,3.490361E-2,4.8039556E-2,2.6586188E-2,3.4366958E-2,7.119661E-2],"split_indices":[23,22,22,23,22,22,22,24,24,2,23,24,23,23,23,23,23,23,23,22,24,0,24,23,23,24,24,23,0,2,22,23,24,23,25,24,0,2,0,24,1,23,23,22,22,0,25,24,24,25,25,0,23,1,0,24,2,6,0,0,0,0,0,0,0,0,0,0,0,0,0,0,0,0,0,0,0,0,0,0,0,0,0,0,0,0,0,0,0,0,0,0,0,0,0,0,0,0,0,0,0,0,0,0,0,0,0,0,0,0,0,0,0],"split_type":[0,0,0,0,0,0,0,0,0,0,0,0,0,0,0,0,0,0,0,0,0,0,0,0,0,0,0,0,0,0,0,0,0,0,0,0,0,0,0,0,0,0,0,0,0,0,0,0,0,0,0,0,0,0,0,0,0,0,0,0,0,0,0,0,0,0,0,0,0,0,0,0,0,0,0,0,0,0,0,0,0,0,0,0,0,0,0,0,0,0,0,0,0,0,0,0,0,0,0,0,0,0,0,0,0,0,0,0,0,0,0,0,0],"sum_hessian":[3.412E3,1.97E3,1.442E3,1.343E3,6.27E2,9.86E2,4.56E2,1.008E3,3.35E2,4.51E2,1.76E2,6.06E2,3.8E2,3E2,1.56E2,7.17E2,2.91E2,2.97E2,3.8E1,1.27E2,3.24E2,6.1E1,1.15E2,5.11E2,9.5E1,2.26E2,1.54E2,2.69E2,3.1E1,8.6E1,7E1,3.81E2,3.36E2,1.67E2,1.24E2,1.59E2,1.38E2,1.5E1,2.3E1,8.2E1,4.5E1,1.97E2,1.27E2,4.4E1,1.7E1,1.9E1,9.6E1,4.24E2,8.7E1,2E1,7.5E1,9.6E1,1.3E2,1.3E2,2.4E1,5.4E1,2.15E2,6.9E1,1.7E1,3.1E1,3.9E1,4.1E1,3.4E2,1.68E2,1.68E2,1.8E1,1.49E2,5.2E1,7.2E1,8.7E1,7.2E1,1.14E2,2.4E1,2E0,1.3E1,1.6E1,7E0,3.5E1,4.7E1,1.9E1,2.6E1,9.1E1,1.06E2,7.1E1,5.6E1,1.4E1,3E1,8E0,9E0,1.8E1,1E0,3.1E1,6.5E1,2.29E2,1.95E2,7.1E1,1.6E1,1E1,1E1,3.4E1,4.1E1,4.2E1,5.4E1,3E1,1E2,2.6E1,1.04E2,1.1E1,4.3E1,2.02E2,1.3E1,3E0,6.6E1],"tree_param":{"num_deleted":"0","num_feature":"27","num_nodes":"113","size_leaf_vector":"1"}},{"base_weights":[-1.3003134E-3,-3.643846E-1,5.831095E-1,-5.221676E-1,-9.62534E-2,3.3434513E-1,1.1708757E0,-6.1785674E-1,-3.7458572E-1,-1.7572644E-1,1.3271284E-1,2.3657854E-1,5.812551E-1,9.897039E-1,1.6205426E0,-6.748733E-1,-5.4381055E-1,-4.2504895E-1,-2.4642164E-1,-2.3046935E-1,7.933981E-3,-4.494913E-2,1.746641E-1,1.9273168E-1,4.4296813E-1,5.321407E-1,7.850444E-1,8.788251E-1,1.2766197E0,1.3627677E0,9.33598E-2,-4.324781E-2,-6.5185934E-1,-2.8980538E-2,-4.5675564E-1,-3.1010797E-2,-4.127524E-1,-5.1328644E-2,-2.662733E-1,-3.1343162E-1,-1.8692747E-1,-8.889784E-2,8.172756E-2,-1.8043195E-1,2.9731972E-2,1.335018E-1,2.8909203E-1,1.3586959E-1,2.753395E-1,3.9105362E-1,3.1568334E-2,5.688385E-1,2.491434E-1,2.8072316E-2,4.5024417E-2,9.16852E-1,6.190484E-1,8.2781695E-2,1.1624913E0,7.085698E-2,4.57662E-2,-3.580795E-2,-2.9970873E-2,-1.7267665E-2,-2.3770304E-2,-1.2697815E-2,-2.1154089E-2,-6.520621E-3,1.7085605E-3,-1.6540151E-2,-1.0958475E-2,-1.8783826E-2,-1.3034028E-2,-1.763092E-2,-8.507774E-3,-6.156832E-4,-8.25287E-3,8.270297E-3,6.8313035E-4,-5.6689E-3,-1.1564452E-2,-3.8638845E-4,5.749118E-3,6.145059E-4,8.7557975E-3,8.707247E-3,1.6463302E-2,2.672483E-3,1.1354898E-2,1.9563554E-2,6.7436467E-3,1.0145947E-2,2.0327775E-2,3.0792702E-2,1.70269E-2,7.829988E-3,1.8055147E-2,3.3663727E-2,4.7836963E-2,2.2059275E-2,3.593233E-2,5.0435346E-2,6.717962E-2],"categories":[],"categories_nodes":[],"categories_segments":[],"categories_sizes":[],"default_left":[0,0,0,0,0,0,0,0,0,0,0,0,0,0,0,0,0,0,0,0,0,0,0,0,0,0,0,1,0,1,0,0,0,0,0,0,1,0,0,0,0,0,0,0,0,0,0,0,0,0,0,0,0,0,0,0,0,0,0,0,0,0,0,0,0,0,0,0,0,0,0,0,0,0,0,0,0,0,0,0,0,0,0,0,0,0,0,0,0,0,0,0,0,0,0,0,0,0,0,0,0,0,0],"id":10,"left_children":[1,3,5,7,9,11,13,15,17,19,21,23,25,27,29,31,33,35,37,39,41,43,45,47,49,51,53,55,57,59,-1,-1,61,-1,63,-1,65,67,69,71,73,75,77,79,81,83,85,87,89,91,-1,93,95,-1,-1,97,99,-1,101,-1,-1,-1,-1,-1,-1,-1,-1,-1,-1,-1,-1,-1,-1,-1,-1,-1,-1,-1,-1,-1,-1,-1,-1,-1,-1,-1,-1,-1,-1,-1,-1,-1,-1,-1,-1,-1,-1,-1,-1,-1,-1,-1,-1],"loss_changes":[7.1762683E2,8.82012E1,1.8910355E2,1.831073E1,1.4107523E1,2.1877754E1,2.9760925E1,2.98938E0,3.2519379E0,5.782938E0,1.4984794E0,5.8420715E0,2.164566E0,7.690216E0,4.3857727E0,1.3828583E0,8.2917786E-1,6.3435364E-1,5.633974E-1,1.5416756E0,9.5762575E-1,3.9996684E-1,7.2444534E-1,2.508501E0,8.680935E-1,2.0495872E0,7.3344994E-1,1.4377594E0,1.3195572E0,8.956909E-2,0E0,0E0,9.228821E-1,0E0,5.813217E-2,0E0,4.6992493E-1,1.0588111E-1,3.3784294E-1,3.9787388E-1,7.542381E-1,3.362594E-1,4.306031E-1,2.1519274E-2,8.3918445E-2,6.08186E-1,1.3661098E-1,2.416511E0,3.5298195E0,1.858139E-1,0E0,1.7867432E0,2.1284115E-1,0E0,0E0,1.0561066E0,1.966734E-1,0E0,3.4358978E-1,0E0,0E0,0E0,0E0,0E0,0E0,0E0,0E0,0E0,0E0,0E0,0E0,0E0,0E0,0E0,0E0,0E0,0E0,0E0,0E0,0E0,0E0,0E0,0E0,0E0,0E0,0E0,0E0,0E0,0E0,0E0,0E0,0E0,0E0,0E0,0E0,0E0,0E0,0E0,0E0,0E0,0E0,0E0,0E0],"parents":[2147483647,0,0,1,1,2,2,3,3,4,4,5,5,6,6,7,7,8,8,9,9,10,10,11,11,12,12,13,13,14,14,15,15,16,16,17,17,18,18,19,19,20,20,21,21,22,22,23,23,24,24,25,25,26,26,27,27,28,28,29,29,32,32,34,34,36,36,37,37,38,38,39,39,40,40,41,41,42,42,43,43,44,44,45,45,46,46,47,47,48,48,49,49,51,51,52,52,55,55,56,56,58,58],"right_children":[2,4,6,8,10,12,14,16,18,20,22,24,26,28,30,32,34,36,38,40,42,44,46,48,50,52,54,56,58,60,-1,-1,62,-1,64,-1,66,68,70,72,74,76,78,80,82,84,86,88,90,92,-1,94,96,-1,-1,98,100,-1,102,-1,-1,-1,-1,-1,-1,-1,-1,-1,-1,-1,-1,-1,-1,-1,-1,-1,-1,-1,-1,-1,-1,-1,-1,-1,-1,-1,-1,-1,-1,-1,-1,-1,-1,-1,-1,-1,-1,-1,-1,-1,-1,-1,-1],"split_conditions":[2.6208162E-1,-5.405442E-1,1.2278286E0,-8.110054E-1,1.7499919E-1,7.3391E-1,2.174421E0,-9.719918E-1,-3.7350392E-1,8.52772E-2,-2.686847E-1,9.082795E-1,8.941872E-2,2.1791155E0,2.1791155E0,-1.2645624E0,-8.124286E-1,-1.1274177E0,3.2513395E-2,-3.7019563E-1,-2.8986454E-1,4.3426868E-1,8.52772E-2,1.5007105E-1,3.740182E-2,7.867133E-1,1.0500274E-2,7.7219024E-2,2.4552296E-3,7.7219024E-2,9.33598E-2,-4.324781E-2,-1.1837945E0,-2.8980538E-2,1.0811287E-2,-3.1010797E-2,1.3123284E-2,-2.7826077E-1,8E0,3.9542323E-1,-8.975489E-1,5.698006E-2,8.547009E-2,7.841317E-2,1.1E1,3.1911242E-1,6E0,1.5908927E-1,4.2592594E-1,1.02397025E-1,3.1568334E-2,7.851446E-2,9.5296156E-1,2.8072316E-2,4.5024417E-2,7.5291085E-1,1.6387093E0,8.2781695E-2,1.769561E0,7.085698E-2,4.57662E-2,-3.580795E-2,-2.9970873E-2,-1.7267665E-2,-2.3770304E-2,-1.2697815E-2,-2.1154089E-2,-6.520621E-3,1.7085605E-3,-1.6540151E-2,-1.0958475E-2,-1.8783826E-2,-1.3034028E-2,-1.763092E-2,-8.507774E-3,-6.156832E-4,-8.25287E-3,8.270297E-3,6.8313035E-4,-5.6689E-3,-1.1564452E-2,-3.8638845E-4,5.749118E-3,6.145059E-4,8.7557975E-3,8.707247E-3,1.6463302E-2,2.672483E-3,1.1354898E-2,1.9563554E-2,6.7436467E-3,1.0145947E-2,2.0327775E-2,3.0792702E-2,1.70269E-2,7.829988E-3,1.8055147E-2,3.3663727E-2,4.7836963E-2,2.2059275E-2,3.593233E-2,5.0435346E-2,6.717962E-2],"split_indices":[23,23,22,22,22,22,22,23,22,23,23,23,20,23,23,23,23,23,4,23,22,22,23,22,1,19,3,2,1,2,0,0,22,0,2,0,1,22,25,12,22,9,9,1,25,22,25,16,17,22,0,3,22,0,0,23,22,0,22,0,0,0,0,0,0,0,0,0,0,0,0,0,0,0,0,0,0,0,0,0,0,0,0,0,0,0,0,0,0,0,0,0,0,0,0,0,0,0,0,0,0,0,0],"split_type":[0,0,0,0,0,0,0,0,0,0,0,0,0,0,0,0,0,0,0,0,0,0,0,0,0,0,0,0,0,0,0,0,0,0,0,0,0,0,0,0,0,0,0,0,0,0,0,0,0,0,0,0,0,0,0,0,0,0,0,0,0,0,0,0,0,0,0,0,0,0,0,0,0,0,0,0,0,0,0,0,0,0,0,0,0,0,0,0,0,0,0,0,0,0,0,0,0,0,0,0,0,0,0],"sum_hessian":[3.38E3,2.085E3,1.295E3,1.312E3,7.73E2,9.11E2,3.84E2,7.94E2,5.18E2,5.74E2,1.99E2,6.54E2,2.57E2,2.76E2,1.08E2,4.44E2,3.5E2,3.7E2,1.48E2,4.42E2,1.32E2,3.8E1,1.61E2,5.41E2,1.13E2,2.1E2,4.7E1,2.02E2,7.4E1,5.6E1,5.2E1,4.4E1,4E2,2.44E2,1.06E2,1.9E1,3.51E2,1.4E1,1.34E2,1.5E2,2.92E2,5.7E1,7.5E1,1.3E1,2.5E1,1.2E2,4.1E1,3.22E2,2.19E2,9.1E1,2.2E1,1.85E2,2.5E1,1.8E1,2.9E1,1.74E2,2.8E1,1.4E1,6E1,4.8E1,8E0,1.74E2,2.26E2,1.8E1,8.8E1,2.3E1,3.28E2,7E0,7E0,5.4E1,8E1,6.6E1,8.4E1,2.5E1,2.67E2,2.9E1,2.8E1,3.3E1,4.2E1,7E0,6E0,1.8E1,7E0,3.1E1,8.9E1,1.2E1,2.9E1,1.7E2,1.52E2,1.19E2,1E2,8E0,8.3E1,1.52E2,3.3E1,1.5E1,1E1,2.7E1,1.47E2,1.2E1,1.6E1,3.6E1,2.4E1],"tree_param":{"num_deleted":"0","num_feature":"27","num_nodes":"103","size_leaf_vector":"1"}},{"base_weights":[-1.3127967E-3,-3.4591544E-1,5.679148E-1,-5.1543003E-1,-1.127301E-1,3.276483E-1,1.1060121E0,-5.8425266E-1,-3.660214E-1,-1.9606872E-1,8.9502625E-2,2.332439E-1,5.6460685E-1,8.820473E-1,1.4819379E0,-6.339016E-1,-4.5204788E-1,-4.1652358E-1,-2.7720502E-1,-2.9314452E-1,-1.1022151E-1,-1.1663239E-1,1.6418985E-1,1.8208253E-1,4.586342E-1,5.0538075E-1,7.417675E-1,8.2426E-1,6.845814E-2,1.2257437E0,1.7282245E0,-7.495556E-1,-6.041021E-1,-5.567746E-1,-3.8997343E-1,-4.3925968E-1,-2.44668E-1,-3.0148247E-1,-6.414299E-2,-4.4813257E-1,-2.605836E-1,-1.3933685E-1,1.1582236E-1,-3.4338242E-1,-6.3798204E-2,-1.7503912E-2,2.2657096E-1,1.1575892E-1,3.929567E-1,3.9031985E-1,2.8155152E-2,5.4098976E-1,3.3019203E-1,9.143821E-1,3.1763162E-2,6.2126863E-1,8.72684E-1,5.212117E-2,6.6560484E-2,7.4216194E-2,9.594122E-2,-4.4561118E-2,-3.5525143E-2,-3.235091E-2,-2.7899018E-2,-3.184489E-2,-2.4327295E-2,-2.1747068E-2,-1.6258482E-2,-2.4230337E-2,-1.8985659E-2,-1.407697E-2,-7.601734E-3,-1.74765E-2,-1.29918E-2,-5.1292903E-3,3.8415946E-3,-2.3896206E-2,-1.5698288E-2,-1.8376783E-2,-1.1137678E-2,-9.935754E-3,-1.7005239E-3,7.485859E-3,-1.7117357E-3,-1.8376147E-2,-7.020322E-3,-1.3366248E-3,-8.919048E-3,-4.083784E-3,6.1982917E-3,6.0472926E-3,1.3539015E-2,2.819655E-3,9.461417E-3,1.6075581E-2,2.6003113E-2,1.7377097E-2,2.911887E-2,2.9372284E-2,1.658603E-2,1.0494766E-2,1.882912E-2,2.2820199E-2,4.82678E-2,2.41746E-2,3.615862E-2,4.492947E-2,2.3538863E-2],"categories":[],"categories_nodes":[],"categories_segments":[],"categories_sizes":[],"default_left":[0,0,0,0,0,0,0,0,0,0,0,0,0,0,0,0,0,0,0,0,0,0,0,0,0,0,0,0,0,0,0,0,0,0,0,0,0,0,0,0,0,0,0,0,0,0,0,0,0,0,0,0,0,0,0,0,1,0,0,0,0,0,0,0,0,0,0,0,0,0,0,0,0,0,0,0,0,0,0,0,0,0,0,0,0,0,0,0,0,0,0,0,0,0,0,0,0,0,0,0,0,0,0,0,0,0,0,0,0],"id":11,"left_children":[1,3,5,7,9,11,13,15,17,19,21,23,25,27,29,31,33,35,37,39,41,43,45,47,49,51,53,55,-1,57,59,61,63,65,67,69,71,73,75,77,79,81,83,85,87,89,91,93,95,97,-1,99,101,103,-1,105,107,-1,-1,-1,-1,-1,-1,-1,-1,-1,-1,-1,-1,-1,-1,-1,-1,-1,-1,-1,-1,-1,-1,-1,-1,-1,-1,-1,-1,-1,-1,-1,-1,-1,-1,-1,-1,-1,-1,-1,-1,-1,-1,-1,-1,-1,-1,-1,-1,-1,-1,-1,-1],"loss_changes":[6.663467E2,8.358385E1,1.6525397E2,1.2382446E1,1.5051135E1,1.9710442E1,3.1949554E1,5.2073975E0,1.629364E0,5.234581E0,4.0374155E0,7.2503815E0,2.2692413E0,5.908722E0,7.0938416E0,1.6357269E0,1.2910728E0,8.5372925E-1,7.255163E-1,1.3770027E0,2.2340517E0,8.167034E-1,2.1801434E0,7.2271976E0,6.1520576E-1,1.0191231E0,5.405617E-1,1.679306E0,0E0,6.23703E-2,4.9894714E-1,3.0685425E-2,6.0292053E-1,1.6278458E-1,2.9276848E-1,3.992424E-1,6.307721E-2,1.6730976E-1,9.45934E-2,4.979992E-2,9.174919E-1,1.863215E0,2.0348561E-1,1.2096643E-2,2.4156272E-1,4.640432E-1,6.350055E-1,1.7208734E0,9.5884514E-1,4.0557098E-1,0E0,1.3411713E0,1.1627865E-1,4.9650192E-2,0E0,3.1022835E-1,1.4510651E0,0E0,0E0,0E0,0E0,0E0,0E0,0E0,0E0,0E0,0E0,0E0,0E0,0E0,0E0,0E0,0E0,0E0,0E0,0E0,0E0,0E0,0E0,0E0,0E0,0E0,0E0,0E0,0E0,0E0,0E0,0E0,0E0,0E0,0E0,0E0,0E0,0E0,0E0,0E0,0E0,0E0,0E0,0E0,0E0,0E0,0E0,0E0,0E0,0E0,0E0,0E0,0E0],"parents":[2147483647,0,0,1,1,2,2,3,3,4,4,5,5,6,6,7,7,8,8,9,9,10,10,11,11,12,12,13,13,14,14,15,15,16,16,17,17,18,18,19,19,20,20,21,21,22,22,23,23,24,24,25,25,26,26,27,27,29,29,30,30,31,31,32,32,33,33,34,34,35,35,36,36,37,37,38,38,39,39,40,40,41,41,42,42,43,43,44,44,45,45,46,46,47,47,48,48,49,49,51,51,52,52,53,53,55,55,56,56],"right_children":[2,4,6,8,10,12,14,16,18,20,22,24,26,28,30,32,34,36,38,40,42,44,46,48,50,52,54,56,-1,58,60,62,64,66,68,70,72,74,76,78,80,82,84,86,88,90,92,94,96,98,-1,100,102,104,-1,106,108,-1,-1,-1,-1,-1,-1,-1,-1,-1,-1,-1,-1,-1,-1,-1,-1,-1,-1,-1,-1,-1,-1,-1,-1,-1,-1,-1,-1,-1,-1,-1,-1,-1,-1,-1,-1,-1,-1,-1,-1,-1,-1,-1,-1,-1,-1,-1,-1,-1,-1,-1,-1],"split_conditions":[2.90333E-1,-5.341799E-1,1.2278286E0,-8.301801E-1,1.22093335E-1,7.3391E-1,1.9607943E0,2.025E3,-5.405442E-1,-3.7019563E-1,-2.686847E-1,2.025E3,4.55419E-1,2.8096235E0,2.1791155E0,-1.162316E0,-1.0889657E0,2.025E3,2.025E3,2.024E3,2.025E3,2.025E3,2.025E3,9.082795E-1,7E0,8.862747E-2,3.846154E-1,9.0230983E-1,6.845814E-2,2.2650185E0,2.4976811E0,-9.2551255E-1,2.024E3,1.6666668E-2,7E0,-6.296167E-1,7E0,-8.975489E-1,-2.752511E-1,4.614251E-1,-8.5798126E-1,8.52772E-2,2.90792E-1,1.1E1,2.7445808E-1,8.801046E-2,6E0,2.024E3,2.024E3,2.008547E-1,2.8155152E-2,7.027972E-1,-1.0468247E0,7.853191E-1,3.1763162E-2,1.5311071E0,3.4194636E-1,5.212117E-2,6.6560484E-2,7.4216194E-2,9.594122E-2,-4.4561118E-2,-3.5525143E-2,-3.235091E-2,-2.7899018E-2,-3.184489E-2,-2.4327295E-2,-2.1747068E-2,-1.6258482E-2,-2.4230337E-2,-1.8985659E-2,-1.407697E-2,-7.601734E-3,-1.74765E-2,-1.29918E-2,-5.1292903E-3,3.8415946E-3,-2.3896206E-2,-1.5698288E-2,-1.8376783E-2,-1.1137678E-2,-9.935754E-3,-1.7005239E-3,7.485859E-3,-1.7117357E-3,-1.8376147E-2,-7.020322E-3,-1.3366248E-3,-8.919048E-3,-4.083784E-3,6.1982917E-3,6.0472926E-3,1.3539015E-2,2.819655E-3,9.461417E-3,1.6075581E-2,2.6003113E-2,1.7377097E-2,2.911887E-2,2.9372284E-2,1.658603E-2,1.0494766E-2,1.882912E-2,2.2820199E-2,4.82678E-2,2.41746E-2,3.615862E-2,4.492947E-2,2.3538863E-2],"split_indices":[23,22,22,23,22,22,22,24,23,23,23,24,0,23,23,23,23,24,24,24,24,24,24,23,25,3,19,23,0,22,22,0,24,21,25,23,25,22,0,4,23,23,8,25,1,4,25,24,24,9,0,19,0,22,0,22,12,0,0,0,0,0,0,0,0,0,0,0,0,0,0,0,0,0,0,0,0,0,0,0,0,0,0,0,0,0,0,0,0,0,0,0,0,0,0,0,0,0,0,0,0,0,0,0,0,0,0,0,0],"split_type":[0,0,0,0,0,0,0,0,0,0,0,0,0,0,0,0,0,0,0,0,0,0,0,0,0,0,0,0,0,0,0,0,0,0,0,0,0,0,0,0,0,0,0,0,0,0,0,0,0,0,0,0,0,0,0,0,0,0,0,0,0,0,0,0,0,0,0,0,0,0,0,0,0,0,0,0,0,0,0,0,0,0,0,0,0,0,0,0,0,0,0,0,0,0,0,0,0,0,0,0,0,0,0,0,0,0,0,0,0],"sum_hessian":[3.395E3,2.115E3,1.28E3,1.224E3,8.91E2,8.86E2,3.94E2,8.36E2,3.88E2,6.31E2,2.6E2,6.35E2,2.51E2,2.49E2,1.45E2,6.05E2,2.31E2,2.45E2,1.43E2,2.95E2,3.36E2,6.9E1,1.91E2,5.19E2,1.16E2,1.91E2,6E1,2.25E2,2.4E1,7.4E1,7.1E1,1.19E2,4.86E2,8.3E1,1.48E2,2.15E2,3E1,1.28E2,1.5E1,4.9E1,2.46E2,2.98E2,3.8E1,1.2E1,5.7E1,4.9E1,1.42E2,3.96E2,1.23E2,7.3E1,4.3E1,1.57E2,3.4E1,2E1,4E1,4.6E1,1.79E2,3.1E1,4.3E1,3.5E1,3.6E1,2.1E1,9.8E1,2.45E2,2.41E2,3.5E1,4.8E1,8.4E1,6.4E1,1.18E2,9.7E1,2E1,1E1,5.6E1,7.2E1,1.2E1,3E0,3.8E1,1.1E1,6.2E1,1.84E2,1.9E2,1.08E2,3.1E1,7E0,1E1,2E0,4.4E1,1.3E1,3.4E1,1.5E1,4.3E1,9.9E1,2.2E2,1.76E2,8.1E1,4.2E1,6.2E1,1.1E1,1.27E2,3E1,1.1E1,2.3E1,3E0,1.7E1,2.2E1,2.4E1,1.67E2,1.2E1],"tree_param":{"num_deleted":"0","num_feature":"27","num_nodes":"109","size_leaf_vector":"1"}},{"base_weights":[4.7034235E-3,-3.3111295E-1,5.426185E-1,-4.71774E-1,-8.048909E-2,3.2701343E-1,1.0971472E0,-5.3239757E-1,-3.0100927E-1,-1.4555824E-1,1.0210698E-1,2.1968871E-1,5.7014203E-1,9.5347255E-1,1.5368301E0,-5.8206165E-1,-4.0663075E-1,-3.4363735E-1,-2.0255347E-1,-1.787097E-1,3.9238267E-2,-7.463723E-2,1.8205465E-1,1.7445391E-1,4.2813352E-1,4.4002184E-1,6.531352E-1,8.874318E-1,7.2765104E-2,6.298603E-2,8.686667E-2,-6.5045047E-1,-5.2818024E-1,-5.6654334E-1,-3.577577E-1,-4.1094926E-1,-2.7989545E-1,-2.201293E-1,4.9054604E-2,-2.7087453E-1,-1.3779548E-1,-1.1418066E-2,2.0697506E-1,-1.5525039E-2,-2.3367462E-1,2.5673281E-2,2.0990367E-1,9.203075E-2,3.3788884E-1,3.360343E-1,4.752286E-1,5.1835436E-1,2.655931E-1,5.902916E-1,8.6416876E-1,7.6684666E-1,1.0520838E0,-3.736568E-2,-3.127877E-2,-2.8661532E-2,-2.4223492E-2,-2.4960104E-2,-3.419339E-2,-1.9438155E-2,-1.1567543E-2,-1.7531643E-2,-2.3365008E-2,-1.5395879E-2,-9.585894E-3,-1.2903032E-2,-3.848711E-3,-3.2103737E-3,4.8754937E-3,-1.9427247E-2,-1.0045121E-2,-1.02165E-2,-2.4987028E-3,-4.1576065E-3,1.9540617E-3,1.4362696E-2,7.0825764E-3,-4.709394E-3,1.214577E-3,-1.3961029E-2,-5.181845E-3,-1.3095436E-3,5.9854705E-3,6.765046E-3,1.2650813E-2,1.4015909E-3,8.069286E-3,1.5111262E-2,2.8564623E-2,9.438849E-3,1.9037737E-2,2.4834989E-2,1.7811527E-2,2.4325753E-2,3.7005696E-2,7.2779194E-3,1.6109442E-2,3.1777404E-2,1.991372E-2,5.2695204E-2,3.7391786E-2,3.33624E-2,4.4357214E-2,4.471837E-2,5.867331E-2],"categories":[],"categories_nodes":[],"categories_segments":[],"categories_sizes":[],"default_left":[0,0,0,0,0,0,0,0,0,0,0,0,0,0,0,0,0,0,0,0,0,0,0,0,0,0,0,1,0,0,0,0,0,1,0,0,0,0,0,0,0,0,0,0,0,0,0,0,0,0,0,0,0,0,0,0,0,0,0,0,0,0,0,0,0,0,0,0,0,0,0,0,0,0,0,0,0,0,0,0,0,0,0,0,0,0,0,0,0,0,0,0,0,0,0,0,0,0,0,0,0,0,0,0,0,0,0,0,0],"id":12,"left_children":[1,3,5,7,9,11,13,15,17,19,21,23,25,27,29,31,33,35,37,39,41,43,45,47,49,51,53,55,-1,-1,-1,57,59,61,63,65,67,69,71,73,75,77,79,81,83,85,87,89,91,93,95,97,99,101,103,105,107,-1,-1,-1,-1,-1,-1,-1,-1,-1,-1,-1,-1,-1,-1,-1,-1,-1,-1,-1,-1,-1,-1,-1,-1,-1,-1,-1,-1,-1,-1,-1,-1,-1,-1,-1,-1,-1,-1,-1,-1,-1,-1,-1,-1,-1,-1,-1,-1,-1,-1,-1,-1],"loss_changes":[6.1851276E2,7.427536E1,1.5698117E2,1.3815491E1,9.032824E0,2.463768E1,2.1781708E1,5.9781494E0,1.4245224E0,3.437725E0,2.8396451E0,6.148424E0,2.844345E0,7.9880676E0,2.7564087E0,2.2763977E0,2.024704E0,9.4475365E-1,4.9724293E-1,1.75383E0,7.3309934E-1,5.886383E-1,5.956106E-1,7.2970314E0,3.4778404E-1,1.4472847E0,1.8107529E0,4.1568604E0,0E0,0E0,0E0,2.7702332E-1,5.158615E-1,1.7216301E-1,7.7622414E-1,2.3721695E-1,2.6218605E-1,5.394325E-1,5.016602E-2,1.1158199E0,1.923873E0,2.4595848E-1,6.4192E-2,1.4949597E-1,7.174826E-2,1.1043158E-1,3.4207582E-1,1.606704E0,1.3423119E0,2.1129513E-1,1.46865845E-2,1.9771767E-1,2.1125364E-1,9.460945E-1,5.060959E-2,1.1813126E0,9.223175E-1,0E0,0E0,0E0,0E0,0E0,0E0,0E0,0E0,0E0,0E0,0E0,0E0,0E0,0E0,0E0,0E0,0E0,0E0,0E0,0E0,0E0,0E0,0E0,0E0,0E0,0E0,0E0,0E0,0E0,0E0,0E0,0E0,0E0,0E0,0E0,0E0,0E0,0E0,0E0,0E0,0E0,0E0,0E0,0E0,0E0,0E0,0E0,0E0,0E0,0E0,0E0,0E0],"parents":[2147483647,0,0,1,1,2,2,3,3,4,4,5,5,6,6,7,7,8,8,9,9,10,10,11,11,12,12,13,13,14,14,15,15,16,16,17,17,18,18,19,19,20,20,21,21,22,22,23,23,24,24,25,25,26,26,27,27,31,31,32,32,33,33,34,34,35,35,36,36,37,37,38,38,39,39,40,40,41,41,42,42,43,43,44,44,45,45,46,46,47,47,48,48,49,49,50,50,51,51,52,52,53,53,54,54,55,55,56,56],"right_children":[2,4,6,8,10,12,14,16,18,20,22,24,26,28,30,32,34,36,38,40,42,44,46,48,50,52,54,56,-1,-1,-1,58,60,62,64,66,68,70,72,74,76,78,80,82,84,86,88,90,92,94,96,98,100,102,104,106,108,-1,-1,-1,-1,-1,-1,-1,-1,-1,-1,-1,-1,-1,-1,-1,-1,-1,-1,-1,-1,-1,-1,-1,-1,-1,-1,-1,-1,-1,-1,-1,-1,-1,-1,-1,-1,-1,-1,-1,-1,-1,-1,-1,-1,-1,-1,-1,-1,-1,-1,-1,-1],"split_conditions":[2.6208162E-1,-4.268574E-1,1.3465381E0,-6.802801E-1,2.5198686E-1,7.6439637E-1,2.3311746E0,2.025E3,-4.2571774E-1,1.00351796E-1,-2.686847E-1,2.025E3,9.0230983E-1,2.8096235E0,2.1791155E0,-1.0572276E0,-1.1274177E0,2.024E3,2.025E3,2.024E3,2.025E3,1.1517286E-1,2.025E3,7.5291085E-1,2E0,4.327957E-1,7.395256E-2,4.1428572E-1,7.2765104E-2,6.298603E-2,8.686667E-2,-1.2226316E0,2.024E3,6.881869E-2,4E0,1.1092557E-1,2.025E3,-1.3190164E-1,5.7932723E-2,-2.489347E-1,-3.7019563E-1,2.024E3,3.1877525E-2,4.229587E-1,5.904683E-1,1.3121326E-1,3E0,2.024E3,3.6021164E-1,3.627928E-1,3.2533553E-1,5.734072E-1,9.5296156E-1,9.537037E-1,9.272925E-2,1.769561E0,1.6721987E0,-3.736568E-2,-3.127877E-2,-2.8661532E-2,-2.4223492E-2,-2.4960104E-2,-3.419339E-2,-1.9438155E-2,-1.1567543E-2,-1.7531643E-2,-2.3365008E-2,-1.5395879E-2,-9.585894E-3,-1.2903032E-2,-3.848711E-3,-3.2103737E-3,4.8754937E-3,-1.9427247E-2,-1.0045121E-2,-1.02165E-2,-2.4987028E-3,-4.1576065E-3,1.9540617E-3,1.4362696E-2,7.0825764E-3,-4.709394E-3,1.214577E-3,-1.3961029E-2,-5.181845E-3,-1.3095436E-3,5.9854705E-3,6.765046E-3,1.2650813E-2,1.4015909E-3,8.069286E-3,1.5111262E-2,2.8564623E-2,9.438849E-3,1.9037737E-2,2.4834989E-2,1.7811527E-2,2.4325753E-2,3.7005696E-2,7.2779194E-3,1.6109442E-2,3.1777404E-2,1.991372E-2,5.2695204E-2,3.7391786E-2,3.33624E-2,4.4357214E-2,4.471837E-2,5.867331E-2],"split_indices":[23,22,22,23,22,22,22,24,23,23,23,24,23,23,23,23,23,24,24,24,24,2,24,23,26,11,20,13,0,0,0,23,24,2,26,8,24,23,2,23,23,24,2,22,22,2,26,24,5,23,12,6,22,17,4,22,22,0,0,0,0,0,0,0,0,0,0,0,0,0,0,0,0,0,0,0,0,0,0,0,0,0,0,0,0,0,0,0,0,0,0,0,0,0,0,0,0,0,0,0,0,0,0,0,0,0,0,0,0],"split_type":[0,0,0,0,0,0,0,0,0,0,0,0,0,0,0,0,0,0,0,0,0,0,0,0,0,0,0,0,0,0,0,0,0,0,0,0,0,0,0,0,0,0,0,0,0,0,0,0,0,0,0,0,0,0,0,0,0,0,0,0,0,0,0,0,0,0,0,0,0,0,0,0,0,0,0,0,0,0,0,0,0,0,0,0,0,0,0,0,0,0,0,0,0,0,0,0,0,0,0,0,0,0,0,0,0,0,0,0,0],"sum_hessian":[3.422E3,2.107E3,1.315E3,1.349E3,7.58E2,9.48E2,3.67E2,9.94E2,3.55E2,5.59E2,1.99E2,6.59E2,2.89E2,2.79E2,8.8E1,7.1E2,2.84E2,2.46E2,1.09E2,4.74E2,8.5E1,6.2E1,1.37E2,5.43E2,1.16E2,1.15E2,1.74E2,2.49E2,3E1,4E1,4.8E1,3.08E2,4.02E2,6.4E1,2.2E2,1.17E2,1.29E2,1.02E2,7E0,1.44E2,3.3E2,6.6E1,1.9E1,4.6E1,1.6E1,2.1E1,1.16E2,3.62E2,1.81E2,4.2E1,7.4E1,7.8E1,3.7E1,1.37E2,3.7E1,1.47E2,1.02E2,5.7E1,2.51E2,1.92E2,2.1E2,4.4E1,2E1,1.75E2,4.5E1,6E1,5.7E1,9.6E1,3.3E1,8E1,2.2E1,2E0,5E0,5.2E1,9.2E1,1.87E2,1.43E2,2.7E1,3.9E1,7E0,1.2E1,1.5E1,3.1E1,1.1E1,5E0,1.4E1,7E0,4.4E1,7.2E1,1.89E2,1.73E2,1.59E2,2.2E1,1.1E1,3.1E1,6E1,1.4E1,7.1E1,7E0,1.3E1,2.4E1,1.09E2,2.8E1,1.1E1,2.6E1,8.4E1,6.3E1,4.8E1,5.4E1],"tree_param":{"num_deleted":"0","num_feature":"27","num_nodes":"109","size_leaf_vector":"1"}},{"base_weights":[3.3644915E-3,-1.9599916E-1,7.7689064E-1,-4.1967306E-1,4.1919947E-2,5.777891E-1,1.2144555E0,-5.015895E-1,-2.842601E-1,-7.149694E-2,1.775723E-1,4.5516133E-1,7.272635E-1,1.08099E0,1.5639985E0,-5.517379E-1,-4.1970503E-1,-3.4559092E-1,-1.5679249E-1,-1.697171E-1,2.3429867E-2,3.4396145E-1,1.3172108E-1,4.094619E-1,3.3626415E-2,9.083002E-1,6.3235384E-1,1.3130445E0,9.614643E-1,2.1939537E-2,7.880204E-2,-5.816587E-1,-4.2459124E-1,-4.6755397E-1,-2.352026E-1,-3.8465574E-1,-1.7076327E-1,1.3309798E-1,-2.2558317E-1,-2.3947813E-1,-7.0327654E-2,-5.5888064E-2,8.530733E-2,2.4752061E-1,4.9138755E-1,1.4758053E-1,-2.5416905E-1,3.238452E-1,4.6777108E-1,5.1622506E-2,3.7773557E-2,7.057509E-1,4.7878447E-1,7.2818965E-2,4.4975888E-2,5.3880733E-2,4.0810775E-2,-2.8252987E-2,-4.0485796E-2,-1.5364132E-2,-2.428136E-2,-2.4198944E-2,-1.5860016E-2,7.356398E-3,-1.6171705E-2,-2.0060144E-2,-1.2815108E-2,-9.704792E-4,-1.15134865E-2,1.0397623E-3,1.2906943E-2,-9.304097E-3,-1.9657157E-2,-2.992802E-3,-1.2560307E-2,6.632314E-4,-7.7623366E-3,7.3813215E-5,-9.351834E-3,2.6216805E-3,1.5065297E-2,7.2342665E-3,1.4717727E-2,1.9715093E-2,2.7679345E-2,4.57406E-3,1.2311137E-2,-8.58777E-3,-1.8545656E-2,2.0077744E-2,9.3746E-3,2.5998488E-2,1.6055252E-2,1.2376325E-2,3.64104E-2,1.860414E-2,2.7794883E-2],"categories":[],"categories_nodes":[],"categories_segments":[],"categories_sizes":[],"default_left":[0,0,0,0,0,0,0,0,0,0,1,0,0,0,0,1,1,0,0,0,0,1,0,0,0,0,1,0,1,0,0,1,0,1,0,0,0,0,1,0,0,0,0,0,0,0,0,0,0,0,0,0,0,0,0,0,0,0,0,0,0,0,0,0,0,0,0,0,0,0,0,0,0,0,0,0,0,0,0,0,0,0,0,0,0,0,0,0,0,0,0,0,0,0,0,0,0],"id":13,"left_children":[1,3,5,7,9,11,13,15,17,19,21,23,25,27,29,31,33,35,37,39,41,43,45,47,-1,49,51,53,55,-1,-1,57,59,61,63,65,67,69,71,73,75,77,79,81,83,85,87,89,91,-1,-1,93,95,-1,-1,-1,-1,-1,-1,-1,-1,-1,-1,-1,-1,-1,-1,-1,-1,-1,-1,-1,-1,-1,-1,-1,-1,-1,-1,-1,-1,-1,-1,-1,-1,-1,-1,-1,-1,-1,-1,-1,-1,-1,-1,-1,-1],"loss_changes":[5.267897E2,1.4455305E2,6.0282166E1,1.5386978E1,2.0275093E1,8.522232E0,8.479462E0,3.3450928E0,4.0891914E0,6.6984124E0,4.532179E0,2.386818E0,3.1369705E0,3.203125E0,9.436035E-2,1.7959595E0,2.847496E0,2.372486E0,3.4998908E0,2.430686E0,1.8010929E0,1.7124805E0,2.9261532E0,9.66774E-1,0E0,5.861168E-1,1.2964668E0,1.7721481E0,9.762039E-1,0E0,0E0,1.1778107E0,6.097412E-1,5.009079E-1,2.4426708E0,5.1522064E-1,5.9896755E-1,4.7207457E-1,8.6009693E-1,4.210329E-1,1.0455506E0,1.2115196E0,1.4469409E0,3.4270525E-1,8.365345E-2,2.4898024E0,1.19098425E-1,9.2073345E-1,8.359413E-1,0E0,0E0,8.076248E-1,2.0456505E-1,0E0,0E0,0E0,0E0,0E0,0E0,0E0,0E0,0E0,0E0,0E0,0E0,0E0,0E0,0E0,0E0,0E0,0E0,0E0,0E0,0E0,0E0,0E0,0E0,0E0,0E0,0E0,0E0,0E0,0E0,0E0,0E0,0E0,0E0,0E0,0E0,0E0,0E0,0E0,0E0,0E0,0E0,0E0,0E0],"parents":[2147483647,0,0,1,1,2,2,3,3,4,4,5,5,6,6,7,7,8,8,9,9,10,10,11,11,12,12,13,13,14,14,15,15,16,16,17,17,18,18,19,19,20,20,21,21,22,22,23,23,25,25,26,26,27,27,28,28,31,31,32,32,33,33,34,34,35,35,36,36,37,37,38,38,39,39,40,40,41,41,42,42,43,43,44,44,45,45,46,46,47,47,48,48,51,51,52,52],"right_children":[2,4,6,8,10,12,14,16,18,20,22,24,26,28,30,32,34,36,38,40,42,44,46,48,-1,50,52,54,56,-1,-1,58,60,62,64,66,68,70,72,74,76,78,80,82,84,86,88,90,92,-1,-1,94,96,-1,-1,-1,-1,-1,-1,-1,-1,-1,-1,-1,-1,-1,-1,-1,-1,-1,-1,-1,-1,-1,-1,-1,-1,-1,-1,-1,-1,-1,-1,-1,-1,-1,-1,-1,-1,-1,-1,-1,-1,-1,-1,-1,-1],"split_conditions":[7.3391E-1,-4.372931E-1,1.7238176E0,-8.3119136E-1,9.350011E-2,1.1773288E0,2.4976811E0,-1.0404367E0,-3.588062E-1,-3.2139868E-1,8.130447E-2,5.0427353E-1,5.083333E-1,5.083333E-1,4.9180403E-2,6.38841E-1,7.2839506E-2,1.8226257E-1,2.5033784E-1,2.1388888E-1,2.024E3,1.9637575E-2,3.52692E-1,-1.658254E-1,3.3626415E-2,8.168489E-2,4.3447815E-2,5.448928E-2,1.1077703E-1,2.1939537E-2,7.880204E-2,2.1267936E-1,1.5264162E-2,2.0111732E-1,7.500466E-2,6.915611E-1,1.04645446E-1,4.7845844E-2,1.1522347E-1,8.432431E-2,1.4814815E-1,2.6301077E-1,3.0575135E0,4.215075E-1,2.53001E-2,-3.891953E-2,4.07311E0,2.6453897E-1,6.1828833E-2,5.1622506E-2,3.7773557E-2,9.361404E-3,1.3972337E0,7.2818965E-2,4.4975888E-2,5.3880733E-2,4.0810775E-2,-2.8252987E-2,-4.0485796E-2,-1.5364132E-2,-2.428136E-2,-2.4198944E-2,-1.5860016E-2,7.356398E-3,-1.6171705E-2,-2.0060144E-2,-1.2815108E-2,-9.704792E-4,-1.15134865E-2,1.0397623E-3,1.2906943E-2,-9.304097E-3,-1.9657157E-2,-2.992802E-3,-1.2560307E-2,6.632314E-4,-7.7623366E-3,7.3813215E-5,-9.351834E-3,2.6216805E-3,1.5065297E-2,7.2342665E-3,1.4717727E-2,1.9715093E-2,2.7679345E-2,4.57406E-3,1.2311137E-2,-8.58777E-3,-1.8545656E-2,2.0077744E-2,9.3746E-3,2.5998488E-2,1.6055252E-2,1.2376325E-2,3.64104E-2,1.860414E-2,2.7794883E-2],"split_indices":[22,22,22,22,22,22,22,22,0,0,12,9,21,21,0,5,1,7,5,21,24,1,2,0,0,14,2,3,12,0,0,4,1,7,1,5,12,1,7,14,9,12,0,0,1,0,0,5,2,0,0,3,22,0,0,0,0,0,0,0,0,0,0,0,0,0,0,0,0,0,0,0,0,0,0,0,0,0,0,0,0,0,0,0,0,0,0,0,0,0,0,0,0,0,0,0,0],"split_type":[0,0,0,0,0,0,0,0,0,0,0,0,0,0,0,0,0,0,0,0,0,0,0,0,0,0,0,0,0,0,0,0,0,0,0,0,0,0,0,0,0,0,0,0,0,0,0,0,0,0,0,0,0,0,0,0,0,0,0,0,0,0,0,0,0,0,0,0,0,0,0,0,0,0,0,0,0,0,0,0,0,0,0,0,0,0,0,0,0,0,0,0,0,0,0,0,0],"sum_hessian":[3.414E3,2.715E3,6.99E2,1.399E3,1.316E3,4.82E2,2.17E2,8.7E2,5.29E2,7.17E2,5.99E2,2.67E2,2.15E2,1.6E2,5.7E1,5.36E2,3.34E2,3.56E2,1.73E2,3.52E2,3.65E2,1.28E2,4.71E2,2.23E2,4.4E1,7.1E1,1.44E2,5.1E1,1.09E2,1E0,5.6E1,4.31E2,1.05E2,2.64E2,7E1,2.9E2,6.6E1,3.3E1,1.4E2,2.06E2,1.46E2,1.6E2,2.05E2,7.9E1,4.9E1,4.53E2,1.8E1,9.3E1,1.3E2,3.6E1,3.5E1,9.5E1,4.9E1,3.6E1,1.5E1,5.7E1,5.2E1,4.05E2,2.6E1,3.8E1,6.7E1,2.36E2,2.8E1,1.3E1,5.7E1,2.55E2,3.5E1,1.9E1,4.7E1,1.8E1,1.5E1,1.15E2,2.5E1,1.3E1,1.93E2,7.4E1,7.2E1,1.12E2,4.8E1,1.79E2,2.6E1,2.6E1,5.3E1,2.2E1,2.7E1,2.9E2,1.63E2,1.2E1,6E0,5.8E1,3.5E1,9.4E1,3.6E1,5E0,9E1,2.3E1,2.6E1],"tree_param":{"num_deleted":"0","num_feature":"27","num_nodes":"97","size_leaf_vector":"1"}},{"base_weights":[5.7936404E-3,-3.1325853E-1,4.6542543E-1,-4.4580773E-1,-1.1891297E-1,2.7764827E-1,9.921845E-1,-5.05273E-1,-3.1662768E-1,-1.7679523E-1,7.5994544E-2,1.8139353E-1,4.9919325E-1,8.5739505E-1,1.3915747E0,-5.473037E-1,-3.9137337E-1,-3.586498E-1,-2.3859793E-1,-2.5066856E-1,-1.0557646E-1,-8.682887E-2,1.4572895E-1,1.3512199E-1,3.7943566E-1,4.268863E-1,6.872732E-1,7.924156E-1,6.650654E-2,5.800817E-2,7.9176545E-2,-6.451773E-1,-5.222546E-1,-4.8779884E-1,-3.3334357E-1,-4.2244905E-1,-2.9896235E-1,-2.5984886E-1,-7.455606E-2,-3.394147E-1,-1.807749E-1,-1.3938797E-1,9.594191E-2,-1.5304937E-2,-4.4782802E-2,-3.8459368E-2,1.7514867E-1,6.597369E-2,3.0967805E-1,3.0979624E-1,4.7636288E-1,2.067474E-1,4.447708E-1,5.2495897E-1,8.198868E-1,9.022534E-1,6.788746E-1,-3.8828775E-2,-3.0503947E-2,-2.795369E-2,-2.398088E-2,-2.1834238E-2,-3.1220913E-2,-2.0121528E-2,-1.4279556E-2,-2.2175675E-2,-1.4958206E-2,-1.6167259E-2,-1.0533209E-2,-1.3920299E-2,-1.0623908E-2,-4.4589355E-3,1.170458E-3,-2.0579526E-2,-1.4675264E-2,-1.2191118E-2,-4.136027E-3,-9.500749E-3,-3.32088E-3,2.0293065E-3,1.05664255E-2,-5.5945897E-3,1.4892278E-3,-3.4872484E-3,2.0475127E-3,6.387032E-3,1.2122657E-2,3.595452E-4,6.364488E-3,1.36703355E-2,2.673315E-2,1.3917061E-2,2.0308655E-2,2.4546325E-2,1.1627067E-2,1.4765955E-3,1.1906478E-2,1.2333675E-2,2.3332017E-2,2.8378475E-2,1.5519579E-2,4.2802222E-2,2.2109417E-2,3.9685607E-2,5.165515E-2,2.6524434E-2,3.6761794E-2],"categories":[],"categories_nodes":[],"categories_segments":[],"categories_sizes":[],"default_left":[0,0,0,0,0,0,0,0,0,0,0,0,0,0,0,0,0,0,0,0,0,0,0,0,0,0,0,0,0,0,0,0,0,1,0,0,0,0,0,0,0,1,0,0,0,0,0,0,0,0,0,0,0,0,0,0,0,0,0,0,0,0,0,0,0,0,0,0,0,0,0,0,0,0,0,0,0,0,0,0,0,0,0,0,0,0,0,0,0,0,0,0,0,0,0,0,0,0,0,0,0,0,0,0,0,0,0],"id":14,"left_children":[1,3,5,7,9,11,13,15,17,19,21,23,25,27,29,31,33,35,37,39,41,43,45,47,49,51,53,55,-1,-1,-1,57,59,61,63,65,67,69,71,73,75,77,79,-1,81,83,85,87,89,91,93,95,97,99,101,103,105,-1,-1,-1,-1,-1,-1,-1,-1,-1,-1,-1,-1,-1,-1,-1,-1,-1,-1,-1,-1,-1,-1,-1,-1,-1,-1,-1,-1,-1,-1,-1,-1,-1,-1,-1,-1,-1,-1,-1,-1,-1,-1,-1,-1,-1,-1,-1,-1,-1,-1],"loss_changes":[5.0035706E2,5.182831E1,1.3800537E2,9.035065E0,9.241854E0,2.1916595E1,1.8563782E1,3.7017822E0,1.1604347E0,3.293333E0,2.1472793E0,6.555769E0,3.9496536E0,7.454895E0,2.2051392E0,1.1217957E0,1.0907936E0,8.0666924E-1,4.5472908E-1,1.8553047E0,2.2141788E0,5.117998E-1,7.2201395E-1,7.052739E0,7.7041817E-1,8.056984E-1,1.3992233E0,2.455368E0,0E0,0E0,0E0,6.581497E-2,4.8381042E-1,2.9994774E-1,3.5683823E-1,1.6856003E-1,2.117672E-1,4.633236E-2,2.644027E-2,3.265257E-1,1.0616946E0,1.0106931E0,2.9162678E-1,0E0,2.4853551E-1,5.0059244E-2,3.3277702E-1,1.5165073E0,1.2084656E0,1.3553143E-1,8.114052E-2,9.863424E-2,7.946739E-1,1.9868755E-1,2.3601723E-1,9.12735E-1,6.553612E-1,0E0,0E0,0E0,0E0,0E0,0E0,0E0,0E0,0E0,0E0,0E0,0E0,0E0,0E0,0E0,0E0,0E0,0E0,0E0,0E0,0E0,0E0,0E0,0E0,0E0,0E0,0E0,0E0,0E0,0E0,0E0,0E0,0E0,0E0,0E0,0E0,0E0,0E0,0E0,0E0,0E0,0E0,0E0,0E0,0E0,0E0,0E0,0E0,0E0,0E0],"parents":[2147483647,0,0,1,1,2,2,3,3,4,4,5,5,6,6,7,7,8,8,9,9,10,10,11,11,12,12,13,13,14,14,15,15,16,16,17,17,18,18,19,19,20,20,21,21,22,22,23,23,24,24,25,25,26,26,27,27,31,31,32,32,33,33,34,34,35,35,36,36,37,37,38,38,39,39,40,40,41,41,42,42,44,44,45,45,46,46,47,47,48,48,49,49,50,50,51,51,52,52,53,53,54,54,55,55,56,56],"right_children":[2,4,6,8,10,12,14,16,18,20,22,24,26,28,30,32,34,36,38,40,42,44,46,48,50,52,54,56,-1,-1,-1,58,60,62,64,66,68,70,72,74,76,78,80,-1,82,84,86,88,90,92,94,96,98,100,102,104,106,-1,-1,-1,-1,-1,-1,-1,-1,-1,-1,-1,-1,-1,-1,-1,-1,-1,-1,-1,-1,-1,-1,-1,-1,-1,-1,-1,-1,-1,-1,-1,-1,-1,-1,-1,-1,-1,-1,-1,-1,-1,-1,-1,-1,-1,-1,-1,-1,-1,-1],"split_conditions":[1.669679E-1,-5.468259E-1,1.3465381E0,-8.301801E-1,2.3039508E-1,7.3391E-1,2.2650185E0,2.025E3,-5.405442E-1,-3.7019563E-1,-2.686847E-1,2.025E3,4.55419E-1,2.8096235E0,2.1791155E0,-1.162316E0,-1.0889657E0,2.024E3,2.025E3,2.025E3,2.025E3,2.025E3,2.025E3,7.5291085E-1,7E0,8.783298E-3,9.944217E-1,9.971399E-2,6.650654E-2,5.800817E-2,7.9176545E-2,-9.2551255E-1,2.024E3,1.8748578E-1,5E0,-2.2001384E-1,2.025E3,-7.419704E-1,-2.752511E-1,2.024E3,-6.802801E-1,2.1869795E-1,7E0,-1.5304937E-2,8E0,1.2E1,9E0,2.024E3,1.4430473E0,4.927224E-1,3.925213E-1,2.024E3,5.308094E-2,6.552316E-2,6.552316E-2,1.7238176E0,1.561302E0,-3.8828775E-2,-3.0503947E-2,-2.795369E-2,-2.398088E-2,-2.1834238E-2,-3.1220913E-2,-2.0121528E-2,-1.4279556E-2,-2.2175675E-2,-1.4958206E-2,-1.6167259E-2,-1.0533209E-2,-1.3920299E-2,-1.0623908E-2,-4.4589355E-3,1.170458E-3,-2.0579526E-2,-1.4675264E-2,-1.2191118E-2,-4.136027E-3,-9.500749E-3,-3.32088E-3,2.0293065E-3,1.05664255E-2,-5.5945897E-3,1.4892278E-3,-3.4872484E-3,2.0475127E-3,6.387032E-3,1.2122657E-2,3.595452E-4,6.364488E-3,1.36703355E-2,2.673315E-2,1.3917061E-2,2.0308655E-2,2.4546325E-2,1.1627067E-2,1.4765955E-3,1.1906478E-2,1.2333675E-2,2.3332017E-2,2.8378475E-2,1.5519579E-2,4.2802222E-2,2.2109417E-2,3.9685607E-2,5.165515E-2,2.6524434E-2,3.6761794E-2],"split_indices":[23,22,22,23,22,22,22,24,23,23,23,24,0,23,23,23,23,24,24,24,24,24,24,23,25,18,22,12,0,0,0,0,24,4,25,0,24,22,0,24,23,16,25,0,25,25,25,24,0,23,14,24,5,2,2,22,22,0,0,0,0,0,0,0,0,0,0,0,0,0,0,0,0,0,0,0,0,0,0,0,0,0,0,0,0,0,0,0,0,0,0,0,0,0,0,0,0,0,0,0,0,0,0,0,0,0,0],"split_type":[0,0,0,0,0,0,0,0,0,0,0,0,0,0,0,0,0,0,0,0,0,0,0,0,0,0,0,0,0,0,0,0,0,0,0,0,0,0,0,0,0,0,0,0,0,0,0,0,0,0,0,0,0,0,0,0,0,0,0,0,0,0,0,0,0,0,0,0,0,0,0,0,0,0,0,0,0,0,0,0,0,0,0,0,0,0,0,0,0,0,0,0,0,0,0,0,0,0,0,0,0,0,0,0,0,0,0],"sum_hessian":[3.41E3,2.013E3,1.397E3,1.196E3,8.17E2,1.031E3,3.66E2,8.17E2,3.79E2,6.3E2,1.87E2,7.2E2,3.11E2,2.76E2,9E1,5.94E2,2.23E2,2.44E2,1.35E2,3.08E2,3.22E2,5.6E1,1.31E2,5.85E2,1.35E2,2.27E2,8.4E1,2.45E2,3.1E1,4.4E1,4.6E1,1.16E2,4.78E2,8.1E1,1.42E2,1.15E2,1.29E2,1.19E2,1.6E1,1.34E2,1.74E2,2.76E2,4.6E1,8E0,4.8E1,1.8E1,1.13E2,4.2E2,1.65E2,8.1E1,5.4E1,1.8E1,2.09E2,4E1,4.4E1,1.21E2,1.24E2,2E1,9.6E1,2.5E2,2.28E2,6.2E1,1.9E1,5.5E1,8.7E1,9.6E1,1.9E1,9.9E1,3E1,8.2E1,3.7E1,1.4E1,2E0,4.9E1,8.5E1,1.05E2,6.9E1,1.62E2,1.14E2,3.2E1,1.4E1,2.5E1,2.3E1,1.3E1,5E0,6.8E1,4.5E1,2.15E2,2.05E2,1.44E2,2.1E1,6.4E1,1.7E1,5E1,4E0,3E0,1.5E1,2.2E1,1.87E2,3.2E1,8E0,3.9E1,5E0,7E1,5.1E1,3.7E1,8.7E1],"tree_param":{"num_deleted":"0","num_feature":"27","num_nodes":"107","size_leaf_vector":"1"}},{"base_weights":[2.2966438E-3,-3.0019036E-1,4.380667E-1,-4.3416715E-1,-1.2947331E-1,2.4473464E-1,9.049632E-1,-4.8942405E-1,-3.0681014E-1,-1.8178773E-1,7.277331E-2,1.4597824E-1,4.077017E-1,7.740017E-1,1.3182207E0,-5.253492E-1,-3.8383892E-1,-3.2832015E-1,-1.3983813E-1,-2.468227E-1,-1.1003789E-1,-6.9186956E-2,1.3273486E-1,1.0696094E-1,3.3778533E-1,3.102281E-1,5.040315E-1,7.198186E-1,6.136514E-2,5.465858E-2,7.539517E-2,-3.1298943E-2,-4.987405E-1,-4.6634755E-1,-3.3493078E-1,-3.9169127E-1,-2.806375E-1,-2.0034485E-1,-3.2774836E-2,-3.3100653E-1,-1.8632986E-1,-1.3628139E-1,7.753616E-2,-1.3416717E-2,-2.958029E-2,-3.9148282E-2,1.6651908E-1,3.011926E-2,1.976758E-1,2.2144492E-1,3.987279E-1,2.0686707E-1,3.9172292E-1,6.01596E-1,3.9327824E-1,6.192287E-1,8.6920273E-1,-2.681744E-2,-2.2856515E-2,-2.8309142E-2,-2.0294694E-2,-1.848919E-2,-1.2470253E-2,-1.6755475E-2,-2.1988323E-2,-1.55385155E-2,-1.2178829E-2,-1.10360775E-2,-5.6752516E-3,-3.7974678E-3,3.8699487E-3,-1.9251289E-2,-1.4650241E-2,-1.1705177E-2,-2.8710174E-3,-9.256062E-3,-3.104079E-3,3.576721E-4,9.030968E-3,-4.906166E-3,8.173611E-4,-3.3907022E-3,2.4298048E-3,6.099266E-3,1.1958841E-2,-1.1331126E-3,4.115641E-3,1.4758128E-2,6.777978E-3,8.057308E-3,1.4322623E-2,2.103886E-2,1.1548449E-2,6.439467E-3,1.4186868E-2,1.4662298E-2,2.281669E-2,2.6685482E-2,3.6140587E-2,1.349967E-2,2.2230027E-2,2.7582506E-2,3.7834246E-2,3.819653E-2,5.0607074E-2],"categories":[],"categories_nodes":[],"categories_segments":[],"categories_sizes":[],"default_left":[0,0,0,0,0,0,0,0,0,0,0,0,0,0,0,0,0,0,0,0,0,0,0,0,0,0,0,0,0,0,0,0,0,0,0,0,0,0,0,0,0,1,0,0,0,0,0,0,0,0,0,0,0,0,0,1,1,0,0,0,0,0,0,0,0,0,0,0,0,0,0,0,0,0,0,0,0,0,0,0,0,0,0,0,0,0,0,0,0,0,0,0,0,0,0,0,0,0,0,0,0,0,0,0,0],"id":15,"left_children":[1,3,5,7,9,11,13,15,17,19,21,23,25,27,29,31,33,35,37,39,41,43,45,47,49,51,53,55,-1,-1,-1,-1,57,59,61,63,65,67,69,71,73,75,77,-1,79,81,83,85,87,89,91,93,95,97,99,101,103,-1,-1,-1,-1,-1,-1,-1,-1,-1,-1,-1,-1,-1,-1,-1,-1,-1,-1,-1,-1,-1,-1,-1,-1,-1,-1,-1,-1,-1,-1,-1,-1,-1,-1,-1,-1,-1,-1,-1,-1,-1,-1,-1,-1,-1,-1,-1,-1],"loss_changes":[4.497517E2,4.6008255E1,1.2597046E2,7.787964E0,9.398055E0,1.5873585E1,2.1115082E1,2.7759857E0,1.1895866E0,3.2625446E0,1.5669086E0,4.5888577E0,3.3459625E0,6.8042603E0,2.49234E0,1.2488403E0,6.6298103E-1,8.0867386E-1,2.5903374E-1,1.8174629E0,1.6694822E0,4.2587852E-1,7.5561357E-1,3.5839472E0,6.4907265E-1,1.5025635E0,1.7732391E0,3.699234E0,0E0,0E0,0E0,0E0,4.8405457E-1,2.1077538E-1,2.982626E-1,2.0081139E-1,1.2196827E-1,2.0954132E-2,8.198562E-2,2.0126915E-1,1.3229475E0,1.0611839E0,3.0342957E-1,0E0,1.4956056E-1,5.8631215E-2,3.2028222E-1,7.7322483E-1,1.3890886E0,1.0279441E-1,1.506443E-1,4.736154E-1,5.2790165E-1,4.124298E-1,4.4941425E-1,1.1802979E0,8.970642E-1,0E0,0E0,0E0,0E0,0E0,0E0,0E0,0E0,0E0,0E0,0E0,0E0,0E0,0E0,0E0,0E0,0E0,0E0,0E0,0E0,0E0,0E0,0E0,0E0,0E0,0E0,0E0,0E0,0E0,0E0,0E0,0E0,0E0,0E0,0E0,0E0,0E0,0E0,0E0,0E0,0E0,0E0,0E0,0E0,0E0,0E0,0E0,0E0],"parents":[2147483647,0,0,1,1,2,2,3,3,4,4,5,5,6,6,7,7,8,8,9,9,10,10,11,11,12,12,13,13,14,14,15,15,16,16,17,17,18,18,19,19,20,20,21,21,22,22,23,23,24,24,25,25,26,26,27,27,32,32,33,33,34,34,35,35,36,36,37,37,38,38,39,39,40,40,41,41,42,42,44,44,45,45,46,46,47,47,48,48,49,49,50,50,51,51,52,52,53,53,54,54,55,55,56,56],"right_children":[2,4,6,8,10,12,14,16,18,20,22,24,26,28,30,32,34,36,38,40,42,44,46,48,50,52,54,56,-1,-1,-1,-1,58,60,62,64,66,68,70,72,74,76,78,-1,80,82,84,86,88,90,92,94,96,98,100,102,104,-1,-1,-1,-1,-1,-1,-1,-1,-1,-1,-1,-1,-1,-1,-1,-1,-1,-1,-1,-1,-1,-1,-1,-1,-1,-1,-1,-1,-1,-1,-1,-1,-1,-1,-1,-1,-1,-1,-1,-1,-1,-1,-1,-1,-1,-1,-1,-1],"split_conditions":[1.669679E-1,-6.0096276E-1,1.2278286E0,-8.301801E-1,2.3039508E-1,5.0991344E-1,2.2650185E0,2.025E3,2.025E3,-3.7019563E-1,-2.686847E-1,2.025E3,9.082795E-1,2.8096235E0,2.1791155E0,-1.162316E0,-1.0889657E0,-6.296167E-1,-5.9416664E-1,2.025E3,2.025E3,2.025E3,2.025E3,4.6108463E-1,4E0,2.025E3,5.083333E-1,1.7238176E0,6.136514E-2,5.465858E-2,7.539517E-2,-3.1298943E-2,2.024E3,3.3240996E-2,8E0,-6.577167E-1,2.024E3,8E0,-2.752511E-1,2.024E3,-6.387171E-1,2.1869795E-1,6E0,-1.3416717E-2,7E0,1.2E1,9E0,2.024E3,7.0844255E-2,3.627928E-1,3.925213E-1,1.8571429E-1,6E0,1.0139669E0,4.2994935E-3,4.7142857E-1,4.1428572E-1,-2.681744E-2,-2.2856515E-2,-2.8309142E-2,-2.0294694E-2,-1.848919E-2,-1.2470253E-2,-1.6755475E-2,-2.1988323E-2,-1.55385155E-2,-1.2178829E-2,-1.10360775E-2,-5.6752516E-3,-3.7974678E-3,3.8699487E-3,-1.9251289E-2,-1.4650241E-2,-1.1705177E-2,-2.8710174E-3,-9.256062E-3,-3.104079E-3,3.576721E-4,9.030968E-3,-4.906166E-3,8.173611E-4,-3.3907022E-3,2.4298048E-3,6.099266E-3,1.1958841E-2,-1.1331126E-3,4.115641E-3,1.4758128E-2,6.777978E-3,8.057308E-3,1.4322623E-2,2.103886E-2,1.1548449E-2,6.439467E-3,1.4186868E-2,1.4662298E-2,2.281669E-2,2.6685482E-2,3.6140587E-2,1.349967E-2,2.2230027E-2,2.7582506E-2,3.7834246E-2,3.819653E-2,5.0607074E-2],"split_indices":[23,22,22,23,22,22,22,24,24,23,23,24,23,23,23,23,23,23,23,24,24,24,24,23,25,24,21,22,0,0,0,0,24,6,25,0,24,25,0,24,23,16,25,0,25,25,25,24,14,23,14,13,25,22,1,13,13,0,0,0,0,0,0,0,0,0,0,0,0,0,0,0,0,0,0,0,0,0,0,0,0,0,0,0,0,0,0,0,0,0,0,0,0,0,0,0,0,0,0,0,0,0,0,0,0],"split_type":[0,0,0,0,0,0,0,0,0,0,0,0,0,0,0,0,0,0,0,0,0,0,0,0,0,0,0,0,0,0,0,0,0,0,0,0,0,0,0,0,0,0,0,0,0,0,0,0,0,0,0,0,0,0,0,0,0,0,0,0,0,0,0,0,0,0,0,0,0,0,0,0,0,0,0,0,0,0,0,0,0,0,0,0,0,0,0,0,0,0,0,0,0,0,0,0,0,0,0,0,0,0,0,0,0],"sum_hessian":[3.41E3,2.013E3,1.397E3,1.127E3,8.86E2,9.89E2,4.08E2,7.84E2,3.43E2,7.04E2,1.82E2,6.17E2,3.72E2,3.12E2,9.6E1,5.82E2,2.02E2,3.03E2,4E1,3.68E2,3.36E2,5.4E1,1.28E2,5.14E2,1.03E2,1.87E2,1.85E2,2.81E2,3.1E1,4.7E1,4.9E1,1.17E2,4.65E2,7.2E1,1.3E2,1.27E2,1.76E2,2.5E1,1.5E1,1.52E2,2.16E2,2.95E2,4.1E1,8E0,4.6E1,2.1E1,1.07E2,2.79E2,2.35E2,3.7E1,6.6E1,8.4E1,1.03E2,9.6E1,8.9E1,1.71E2,1.1E2,2.38E2,2.27E2,2.4E1,4.8E1,9E1,4E1,6.2E1,6.5E1,9.3E1,8.3E1,1.9E1,6E0,1.1E1,4E0,5.9E1,9.3E1,1.57E2,5.9E1,1.77E2,1.18E2,2.5E1,1.6E1,1.8E1,2.8E1,1.6E1,5E0,6.8E1,3.9E1,1.39E2,1.4E2,9E1,1.45E2,2.1E1,1.6E1,5.7E1,9E0,4.3E1,4.1E1,4.3E1,6E1,6.5E1,3.1E1,2.8E1,6.1E1,1.18E2,5.3E1,6.7E1,4.3E1],"tree_param":{"num_deleted":"0","num_feature":"27","num_nodes":"105","size_leaf_vector":"1"}},{"base_weights":[-1.966647E-3,-2.7193737E-1,4.4749162E-1,-3.8335022E-1,-6.3498795E-2,2.7413607E-1,8.9200956E-1,-4.3601552E-1,-2.4179952E-1,-1.2415871E-1,9.224752E-2,1.8685593E-1,4.560018E-1,7.5326204E-1,1.196713E0,-4.7754672E-1,-3.3030647E-1,-2.805746E-1,-1.7782444E-1,-1.549429E-1,2.3152987E-2,-8.088397E-2,1.5196916E-1,1.4430854E-1,3.7723035E-1,3.8525993E-1,6.3678515E-1,6.9774204E-1,6.002407E-2,1.0078096E0,6.940159E-2,-5.2623284E-1,-4.2369616E-1,-3.950254E-1,-2.5131813E-1,-3.3821198E-1,-2.1637368E-1,-1.3242795E-2,-1.3853808E-1,-7.128051E-2,-1.86355E-1,-1.1402222E-2,1.9016257E-1,-9.3972515E-3,-1.5750824E-1,1.9281609E-2,1.8235533E-1,9.494233E-2,3.2295892E-1,3.0447072E-1,4.321702E-1,4.140065E-1,1.9323094E-1,3.853666E-2,5.4025334E-1,7.964572E-1,6.047771E-1,5.2613575E-2,3.4235965E-2,-2.5699217E-2,-3.4942314E-2,-2.2884E-2,-1.9462192E-2,-2.7877202E-2,-1.8420834E-2,-1.750778E-2,-9.533552E-3,-1.4244077E-2,-1.9139398E-2,-1.3040069E-2,-8.239041E-3,-2.0177688E-3,-8.494574E-3,-7.4445046E-3,-2.674449E-4,-1.1191611E-2,-6.01511E-3,-3.014966E-3,1.709757E-3,1.42376E-2,6.0640406E-3,-3.471706E-3,5.580811E-3,-2.1816238E-3,-9.858302E-3,-1.8701807E-3,6.029639E-3,4.248996E-3,1.1171906E-2,2.1202639E-3,7.7721337E-3,1.3014533E-2,2.1306055E-2,1.3831029E-2,2.5546908E-2,2.327845E-2,1.5818758E-2,1.1182751E-2,2.1647861E-2,3.988421E-3,1.3222053E-2,1.1088004E-2,2.743637E-2,3.4467187E-2,4.4618692E-2,2.5297964E-2,3.4675766E-2],"categories":[],"categories_nodes":[],"categories_segments":[],"categories_sizes":[],"default_left":[0,0,0,0,0,0,0,0,0,0,0,0,0,0,0,0,0,0,0,1,0,0,0,0,0,0,0,0,0,1,0,1,0,0,0,0,0,0,0,0,0,0,0,0,0,0,0,0,0,0,0,0,0,0,0,0,0,0,0,0,0,0,0,0,0,0,0,0,0,0,0,0,0,0,0,0,0,0,0,0,0,0,0,0,0,0,0,0,0,0,0,0,0,0,0,0,0,0,0,0,0,0,0,0,0,0,0],"id":16,"left_children":[1,3,5,7,9,11,13,15,17,19,21,23,25,27,29,31,33,35,37,39,41,43,45,47,49,51,53,55,-1,57,-1,59,61,63,65,67,69,-1,71,73,75,77,79,81,83,85,87,89,91,93,95,97,99,-1,101,103,105,-1,-1,-1,-1,-1,-1,-1,-1,-1,-1,-1,-1,-1,-1,-1,-1,-1,-1,-1,-1,-1,-1,-1,-1,-1,-1,-1,-1,-1,-1,-1,-1,-1,-1,-1,-1,-1,-1,-1,-1,-1,-1,-1,-1,-1,-1,-1,-1,-1,-1],"loss_changes":[4.119516E2,4.923108E1,9.7929474E1,1.0197128E1,7.002647E0,1.4486458E1,1.4191437E1,4.258835E0,8.853054E-1,2.4206734E0,2.1629486E0,4.983719E0,3.5529861E0,5.320114E0,2.5765991E0,1.6647034E0,1.367878E0,7.890072E-1,4.5908403E-1,1.1456699E0,5.3887606E-1,2.9431117E-1,6.2142277E-1,4.4671774E0,3.2012367E-1,1.1123619E0,6.438904E-1,1.5648041E0,0E0,1.2702942E-1,0E0,4.3154144E-1,2.2812653E-1,4.6920204E-1,7.2447014E-1,1.7859936E-1,2.160387E-1,0E0,3.0713665E-1,6.2346846E-1,7.652235E-1,1.7596906E-1,6.971282E-2,2.184428E-1,1.0881472E-1,1.76796E-1,4.8506975E-1,1.2679908E0,6.002331E-1,1.576724E-1,9.248543E-2,5.777321E-1,2.2129619E-1,0E0,1.5958786E-2,4.6361542E-1,6.926079E-1,0E0,0E0,0E0,0E0,0E0,0E0,0E0,0E0,0E0,0E0,0E0,0E0,0E0,0E0,0E0,0E0,0E0,0E0,0E0,0E0,0E0,0E0,0E0,0E0,0E0,0E0,0E0,0E0,0E0,0E0,0E0,0E0,0E0,0E0,0E0,0E0,0E0,0E0,0E0,0E0,0E0,0E0,0E0,0E0,0E0,0E0,0E0,0E0,0E0,0E0],"parents":[2147483647,0,0,1,1,2,2,3,3,4,4,5,5,6,6,7,7,8,8,9,9,10,10,11,11,12,12,13,13,14,14,15,15,16,16,17,17,18,18,19,19,20,20,21,21,22,22,23,23,24,24,25,25,26,26,27,27,29,